tree
version=v4
num_class=1
num_tree_per_iteration=1
label_index=0
max_feature_idx=123
objective=binary sigmoid:1
feature_names=customer_id article_id ItemPairRetrieve_1 ItemPairRetrieve_2 OrderHistoryDecay_2 OrderHistory_1 OrderHistory_2 price valid product_code i_1w_sale_rank i_1w_sale_norm p_1w_sale_rank p_1w_sale_norm i_2w_sale i_2w_sale_rank i_2w_sale_norm p_2w_sale p_2w_sale_rank p_2w_sale_norm i_3w_sale i_3w_sale_rank i_3w_sale_norm p_3w_sale p_3w_sale_rank p_3w_sale_norm i_4w_sale i_4w_sale_rank i_4w_sale_norm p_4w_sale p_4w_sale_rank p_4w_sale_norm i_repurchase_ratio p_repurchase_ratio i_sale p_sale i_sale_uni p_sale_uni lw_i_sale lw_p_sale lw_i_sale_uni lw_p_sale_uni i_sale_ratio i_sale_uni_ratio lw_i_sale_ratio lw_i_sale_uni_ratio i_uni_ratio p_uni_ratio lw_i_uni_ratio lw_p_uni_ratio i_sale_trend p_sale_trend product_type_no_sale lw_product_type_no_sale product_type_no_sale_trend product_group_name_sale lw_product_group_name_sale product_group_name_sale_trend graphical_appearance_no_sale lw_graphical_appearance_no_sale graphical_appearance_no_sale_trend colour_group_code_sale lw_colour_group_code_sale colour_group_code_sale_trend perceived_colour_value_id_sale lw_perceived_colour_value_id_sale perceived_colour_value_id_sale_trend perceived_colour_master_id_sale lw_perceived_colour_master_id_sale perceived_colour_master_id_sale_trend first_dat i_daily_sale p_daily_sale i_daily_sale_ratio i_w_full_sale_ratio i_2w_full_sale_ratio p_w_full_sale_ratio p_2w_full_sale_ratio i_week_above_daily_sale p_week_above_full_sale i_2w_week_above_daily_sale p_2w_week_above_daily_sale product_type_no_daily_sale i_product_type_no_daily_sale_ratio p_product_type_no_daily_sale_ratio product_group_name_daily_sale i_product_group_name_daily_sale_ratio p_product_group_name_daily_sale_ratio graphical_appearance_no_daily_sale i_graphical_appearance_no_daily_sale_ratio p_graphical_appearance_no_daily_sale_ratio colour_group_code_daily_sale i_colour_group_code_daily_sale_ratio p_colour_group_code_daily_sale_ratio perceived_colour_value_id_daily_sale i_perceived_colour_value_id_daily_sale_ratio p_perceived_colour_value_id_daily_sale_ratio perceived_colour_master_id_daily_sale i_perceived_colour_master_id_daily_sale_ratio p_perceived_colour_master_id_daily_sale_ratio i_pop p_pop FN Active club_member_status fashion_news_frequency age user_gender product_type_no product_group_name graphical_appearance_no colour_group_code perceived_colour_value_id perceived_colour_master_id article_gender season_type dssm_similarity yt_similarity wv_similarity article_time_mean customer_id_last_time customer_id_first_time customer_id_time_mean customer_id_gap
feature_infos=-1:250:481:80:144:392:228:322:626:34:279:900:984:22:82:232:746:794:1113:1236:1823:36:59:141:143:190:234:261:333:347:412:482:510:564:676:718:1013:1350:1787:9:16:20:38:64:77:81:120:173:198:204:218:272:310:326:352:382:401:419:454:484:501:580:13:15:32:39:48:70:79:83:102:150:172:211:246:288:293:296:315:321:327:335:337:350:364:388:406:443:446:463:556:563:576:577:590:636:645:717:743:762:803:956:1000:1154:1265:1285:1312:1346:1399:1424:1772:1963:5:12:19:21:37:43:50:69:91:98:110:111:126:129:135:154:159:168:169:174:180:209:220:221:222:226:236:243:259:265:267:284:286:290:299:308:313:316:317:329:356:359:381:420:421:436:439:445:457:459:462:487:508:513:516:520:546:579:589:600:602:611:624:634:668:673:695:725:764:781:791:812:813:855:858:888:893:921:1044:1056:1060:1081:1131:1148:1226:1374:1378:1393:1454:1516:1648:1990 -1:2993:2340:5753:7301:15068:15365:15431:823:942:3455:6900:9220:9533:10189:11655:11944:12789:13749:14716:14718:14823:14907:14928:15263:15484 [-6.19921875:2.697265625] [-6.19921875:2.697265625] [-2.7734375:0.5908203125] [-3.2890625:5.19921875] [-3.326171875:5.19921875] [28.984375:7200] [0:1] -1:1375:2841:5440:224:1238:1296:3806:4015:4977:5221:5399:7137:7178:7431:7740:9361:396:561:978:1067:1359:1419:1649:1905:2157:2196:3024:3664:3777:4080:4140:4410:4515:4772:4969:5855:6157:6226:6589:6628:6673:6675:6900:7348:8498:8563:8689:9012:9064:9146:9477 [0:100] [-0.9951171875:0.01149749755859375] [0:100] [-0.9951171875:0.0155029296875] [0:2] [0:100] [-0.9951171875:0.01149749755859375] [0:2] [0:100] [-0.9951171875:0.0155029296875] [0:2] [0:141] [-0.99658203125:0.0081329345703125] [0:2] [0:141] [-0.99658203125:0.0081329345703125] [0:3] [0:182] [-0.99755859375:0.00811004638671875] [0:3] [0:180] [-0.99755859375:0.00879669189453125] none none [0:1] [0:2] [0:1] [0:2] none [0:2] none [0:2] [0:1] [0:1] none none [0:1] [0:1] none [0:2000000] [-0.9999995231628418:1000000] [-0.9999995231628418:2000000] [15:32] [15:31] [-0.225830078125:1.1337890625] [0:32] [0:31] [-0.225830078125:1.1337890625] [15:32] [15:31] [-0.225830078125:1.1337890625] [15:32] [15:31] [-0.225830078125:1.1337890625] [15:32] [15:31] [-0.225830078125:1.1337890625] [15:32] [15:31] [-0.225830078125:1.1337890625] [7:1463] [0:0.005023956298828125] [0:0.85693359375] [0:1] [0:1] [0:1] [0:1] [0:1] [-0.005023956298828125:0.1419677734375] [-6:0.142822265625] [-0.005023956298828125:0.14111328125] [-0.85693359375:0.14111328125] [1.0712890625:1.259765625] [0:0.00469207763671875] [0:0.7998046875] [0.002819061279296875:1.2578125] [0:0.004703521728515625] [0:0.80224609375] [1.0712890625:1.259765625] [0:0.00469207763671875] [0:0.7998046875] [1.0712890625:1.259765625] [0:0.00469207763671875] [0:0.7998046875] [1.0712890625:1.259765625] [0:0.00469207763671875] [0:0.7998046875] [1.0712890625:1.259765625] [0:0.00469207763671875] [0:0.7998046875] [0:1] [0:1] -1:0:1:2 none -1:0 -1:1:0 -1:21:12:23:2:7:8:0:9:40:16:26:1:36:11:25:32:15:30:35:28:31:38:41:18:24:14:17:27:6:10:3:19:4:37:34:5:20:33:22:29:13 -1:0:1 none none none none none none -1:2:0:1 -1:0:1:2 [-0.13520567474906184:0.19694291862409694] none [-0.13377238507876155:0.19341839079945244] [2.125:210] [0:207] [0:169] [2.5:122.49425287356321] [-179:153]
tree_sizes=2248 1969 2214 2966 2764 2852 3185 2834 3314 2742 3163 2401 3285 3480 3392 2968 3395 3318 3287 3277 3281 3399 4205 4202 4444 4192 4133 4193 4047 3917 4186 4268 3941 3808 4921 4906 4746 4729 4748 5043

Tree=0
num_leaves=20
num_cat=2
split_feature=119 114 123 102 116 122 52 122 120 118 116 2 116 123 52 116 5 116 118
split_gain=26.0272 8.84724 10.8117 25.9525 15.0729 3.75904 7.59036 2.68448 1.65746 2.21888 1.77636e-15 4.44089e-16 4.44089e-16 4.44089e-16 2.22045e-16 2.22045e-16 1.11022e-16 1.11022e-16 1.11022e-16
threshold=5.0454545454545459 0 13.500000000000002 1 -0.082956096348329303 8.6872469635627549 28.000000000000004 56.519670023569752 2.5000000000000004 0.010980019737848821 0.047458953705786108 -5.6992187499999991 0.090967778583257136 -1.0000000180025095e-35 28.000000000000004 0.14192281414218127 4.6992187500000009 0.12472384591437047 -0.0010273464671472939
decision_type=2 1 2 1 2 2 2 2 2 2 2 2 2 2 2 2 2 2 2
left_child=-1 8 4 -4 -3 6 -6 -5 9 -2 -10 -7 -12 14 -13 17 -15 18 -14
right_child=1 2 3 7 5 11 -8 -9 10 -11 12 13 15 16 -16 -17 -18 -19 -20
leaf_value=-4.13960012847628 -4.2655639716083718 -4.1910817255375168 -4.030363191342758 -4.3853832370267041 -4.201045905613884 -4.3853832370267041 -4.3853832370267041 -4.2655639716083718 -4.3853832370267041 -4.3853832370267041 -4.3853832370267041 -4.3853832370267041 -4.3853832370267041 -4.3853832370267041 -4.3853832370267041 -4.3853832370267041 -4.3853832370267041 -4.3853832370267041 -4.3853832370267041
leaf_weight=0.48823533765971738 0.25037709623575199 0.46319762803614128 0.33800907991826534 0.51327304728329159 0.32549022510647496 1.577375706285238 0.52579190209507942 0.25037709623575211 5.64600352011621 0.31297137029469013 1.1141780782490971 0.4006033539772027 0.26289595104753971 0.26289595104754049 0.77616899833083153 0.26289595104753971 0.38808449916541576 0.26289595104753971 0.38808449916541554
leaf_count=39 20 37 27 41 26 126 42 20 451 25 89 32 21 21 62 21 31 21 31
internal_value=-4.355 -4.36234 -4.33385 -4.24922 -4.3536 -4.37129 -4.3149 -4.3461 -4.38185 -4.33213 -4.38538 -4.38538 -4.38538 -4.38538 -4.38538 -4.38538 -4.38538 -4.38538 -4.38538
internal_weight=14.8098 14.3216 5.82127 1.10166 4.71961 4.25641 0.851282 0.76365 8.5003 0.563348 7.93695 3.40513 2.29095 1.82775 1.17677 1.17677 0.65098 0.913876 0.65098
internal_count=1183 1144 465 88 377 340 68 61 679 45 634 272 183 146 94 94 52 73 52
cat_boundaries=0 1 2
cat_threshold=4 2
is_linear=0
shrinkage=1


Tree=1
num_leaves=17
num_cat=2
split_feature=119 114 123 116 119 123 102 122 120 120 122 121 122 4 4 2
split_gain=19.9047 8.36774 9.45377 9.13772 15.4303 5.74626 15.2872 3.54485 11.3554 1.611 2.05172 2.77498e-07 1.94606e-07 8.88178e-16 8.88178e-16 2.22045e-16
threshold=5.0454545454545459 0 55.000000000000007 -0.082956096348329303 35.303030303030312 13.500000000000002 1 8.6872469635627549 7.5000000000000009 2.5000000000000004 12.354267310789051 4.5000000000000009 42.184942084942094 -1.3574218749999998 -1.0639648437499998 -5.6992187499999991
decision_type=2 1 2 2 2 2 1 2 2 2 2 2 2 8 8 2
left_child=-1 9 3 4 -3 7 -7 8 11 10 -2 -5 -8 15 -11 -9
right_child=1 2 -4 5 -6 6 12 13 -10 14 -12 -13 -14 -15 -16 -17
leaf_value=0.16888717072092962 -0.030402830165619822 -0.030449004601954502 0.1943341952890571 -0.030376844293803974 0.27870408081546749 0.21932032698605375 -0.030373744101745672 -0.030373744101745703 0.20748336683502813 -0.030373744101745759 0.083141663605337729 -0.03041673279464124 -0.030408829321885638 -0.030373744101745752 -0.030373744101745759 -0.03037374410174571
leaf_weight=0.60191091522574502 0.31274101138114918 0.29009183309972275 0.2669287435710429 0.35483645647763928 0.29111646208912134 0.36021128855645657 0.29168182611465443 0.52259660512208939 0.25218753516674042 2.394221656024456 0.26424696296453476 0.28148501366376877 0.27778501063585281 2.199767105281353 5.3110399171710014 0.58336365222930908
leaf_count=39 24 20 19 29 20 21 24 43 18 197 21 21 21 181 437 48
internal_value=-9.91749e-05 -0.0072349 0.0198336 0.0116692 0.1244 -0.00111793 0.0663618 -0.0160752 0.0371229 -0.0267531 0.0215979 -0.0303945 -0.0303909 -0.0303737 -0.0303737 -0.0303737
internal_weight=14.8562 14.2543 5.97205 5.70512 0.581208 5.12391 0.929678 4.19424 0.888509 8.28225 0.576988 0.636321 0.569467 3.30573 7.70526 1.10596
internal_count=1183 1144 465 446 40 406 66 340 68 679 45 50 45 272 634 91
cat_boundaries=0 1 2
cat_threshold=4 2
is_linear=0
shrinkage=0.03


Tree=2
num_leaves=19
num_cat=3
split_feature=119 106 114 118 119 119 53 114 123 56 116 118 2 122 122 120 120 123
split_gain=15.9669 7.93295 23.9904 29.038 33.3682 37.6479 3.47557 4.43365e-06 6.5258e-06 4.362e-06 3.29871e-06 1.77118e-06 1.56419e-06 9.88662e-07 1.15668e-06 6.37766e-07 2.34453e-07 2.22045e-16
threshold=5.0454545454545459 0 1 0.030736374745884736 63.742424242424249 29.676282051282055 30.500000000000004 2 12.500000000000002 16.500000000000004 -0.070036441922043266 0.089482298535271274 -5.6992187499999991 9.0357142857142865 5.4272727272727286 2.5000000000000004 4.5000000000000009 -10.499999999999998
decision_type=2 9 1 2 2 2 2 1 2 2 2 2 2 2 2 2 2 2
left_child=-1 2 6 4 5 -4 16 15 10 -10 -9 -5 -11 14 -12 -3 -2 -18
right_child=1 7 3 11 -6 -7 -8 8 9 12 13 -13 -14 -15 -16 -17 17 -19
leaf_value=0.13879167962717975 -0.030393567278805298 -0.030402838073736265 0.1135787368690888 -0.03036608668911922 -0.030501003945222253 0.51077943726233066 0.087953599255583145 -0.030473217755206432 -0.03039147613494865 -0.030471322767709627 -0.030368335854786568 -0.030466543242637749 -0.030561037844647938 -0.030362561030104238 -0.030448322985092639 -0.030362561030104245 -0.030362561030104193 -0.030362561030104231
leaf_weight=0.70856037363410074 0.25367836281657252 0.37788517866283644 0.41652268171310447 0.38043623417615879 0.34600614197552204 0.44337552972137928 0.25353629980236281 0.32613283488899503 0.42802305240184046 0.37702337373048067 0.35858954768627738 0.27011396829038858 0.32625828869640827 2.1473270151764154 0.29787079803645611 5.557093539275229 0.63711900450289272 0.99107400700449899
leaf_count=39 20 29 29 32 23 28 21 22 34 26 30 19 19 182 21 471 54 84
internal_value=-0.000190957 -0.00713183 0.0149082 0.131132 0.218277 0.318381 -0.0163186 -0.0153385 -0.0304052 -0.030467 -0.0303829 -0.0304078 -0.0305129 -0.0303724 -0.0304046 -0.0303651 -0.0303667 -0.0303626
internal_weight=14.8966 14.1881 3.99186 1.85645 1.2059 0.859898 2.13541 10.1962 4.26122 1.1313 3.12992 0.65055 0.703282 2.80379 0.65646 5.93498 1.88187 1.62819
internal_count=1183 1144 310 131 80 57 179 834 334 79 255 51 45 233 51 500 158 138
cat_boundaries=0 2 3 4
cat_threshold=2707832962 256 4 4
is_linear=0
shrinkage=0.03


Tree=3
num_leaves=26
num_cat=5
split_feature=119 120 106 114 118 119 119 53 114 123 102 116 118 118 122 122 120 120 122 119 70 118 107 53 6
split_gain=13.8978 22.5017 6.46781 16.3821 16.0641 15.7833 20.1534 3.69779 4.66426e-06 7.57192e-06 1.11785e-05 2.67357e-06 1.66726e-06 9.84958e-07 9.71073e-07 1.12328e-06 5.72841e-07 1.81999e-07 1.772e-07 8.75979e-09 3.02474e-09 1.48288e-09 8.88178e-16 6.66134e-16 2.22045e-16
threshold=6.7500000000000009 29.500000000000004 0 1 0.030736374745884736 63.742424242424249 29.676282051282055 30.500000000000004 2 12.500000000000002 3 -0.069233507340181397 0.090126666054004975 0.081345119016920917 9.0357142857142865 5.4272727272727286 2.5000000000000004 6.5000000000000009 36.618470149253739 13.583333333333334 1161.5000000000002 0.13235379581968951 4 30.500000000000004 -2.6386718749999996
decision_type=2 2 9 1 2 2 2 2 1 2 1 2 2 2 2 2 2 2 2 2 2 2 1 2 2
left_child=1 -1 3 7 5 6 -5 17 16 11 -11 -10 18 -6 15 -13 -4 -2 -12 -16 21 22 -18 -21 -19
right_child=2 -3 8 4 13 -7 -8 -9 9 10 12 14 -14 -15 19 -17 20 24 -20 23 -22 -23 -24 -25 -26
leaf_value=-0.030555706878884765 -0.030378106768068409 0.23488564087520689 -0.030390775619680083 0.044145980608982151 -0.030351718522404487 -0.030480368208853446 0.31050569762797714 0.095823456724031392 -0.030452839543704712 -0.030628287470907494 -0.030359745311351036 -0.030357931568618726 -0.030470053156309723 -0.030432779737231554 -0.030357892192823373 -0.030441915393231087 -0.03035171973073874 -0.030351719760594271 -0.030393727131419971 -0.030351719760594319 -0.03035453313605754 -0.030354183602059055 -0.030351719760594399 -0.03035171826218212 -0.030351719760594312
leaf_weight=0.58503848779946632 0.28063687868416298 0.56500208470970392 0.36686033941805352 0.40175262372940757 0.30925234593451034 0.30392295960336912 0.70302347838878632 0.23765734676271688 0.32570796087384257 0.27737422008067369 0.24452728126198031 0.31375527568161343 0.26646207179874182 0.23929646331816912 0.23252837173640761 0.26387609634548426 4.341001112014057 0.40088403970003117 0.31733035575598478 1.5920823290944097 0.40368634648621071 0.23047774750739325 0.42379169911145975 0.28634457942098368 1.0537523329257963
leaf_count=35 23 31 29 25 27 21 27 18 23 14 21 27 18 18 20 19 379 35 25 139 35 20 37 25 92
internal_value=-0.00034899 0.0998527 -0.00868976 0.0129355 0.107343 0.160975 0.213644 -0.0151565 -0.0150988 -0.0303963 -0.0304634 -0.0303717 -0.0304082 -0.0303871 -0.0303618 -0.0303963 -0.0303545 -0.030356 -0.0303789 -0.0303524 -0.030352 -0.0303518 -0.0303517 -0.0303517 -0.0303517
internal_weight=14.966 1.15004 13.816 3.93018 1.95725 1.4087 1.10478 1.97293 9.88581 4.11999 1.10569 3.01429 0.82832 0.548549 2.68859 0.577631 5.76582 1.73527 0.561858 2.11096 5.39896 4.99527 4.76479 1.87843 1.45464
internal_count=1183 66 1117 286 118 73 52 168 831 331 78 253 64 45 230 46 500 150 46 184 471 436 416 164 127
cat_boundaries=0 2 3 4 5 6
cat_threshold=2166767746 256 4 4 2 1
is_linear=0
shrinkage=0.03


Tree=4
num_leaves=24
num_cat=4
split_feature=119 3 106 114 5 118 116 53 114 123 102 116 118 122 122 120 120 122 119 70 118 79 116
split_gain=11.8333 17.1301 6.06313 13.2571 13.4104 14.7114 10.7536 3.31354 4.2588e-06 6.91221e-06 1.02012e-05 2.44127e-06 1.52219e-06 8.86822e-07 1.02565e-06 5.23044e-07 1.66206e-07 1.61786e-07 8.00376e-09 2.76593e-09 1.356e-09 8.88178e-16 6.66134e-16
threshold=6.7500000000000009 -5.6992187499999991 0 1 4.6992187500000009 0.030736374745884736 -0.013266387833238628 30.500000000000004 2 12.500000000000002 3 -0.069233507340181397 0.090126666054004975 9.0357142857142865 5.4272727272727286 2.5000000000000004 6.5000000000000009 36.618470149253739 13.583333333333334 1161.5000000000002 0.13235379581968951 -1.0000000180025095e-35 -0.032511953974122834
decision_type=2 2 9 1 2 2 2 2 1 2 1 2 2 2 2 2 2 2 2 2 2 2 2
left_child=1 -1 3 7 -5 6 -6 16 15 11 -11 -10 17 14 -13 -4 -2 -12 -15 20 21 -17 -20
right_child=2 -3 8 4 5 -7 -8 -9 9 10 12 13 -14 18 -16 19 -18 -19 22 -21 -22 -23 -24
leaf_value=-0.030629671496298142 -0.030366795463012457 0.18976732475636235 -0.03037907968135926 -0.030635370687713399 0.28158646877725901 -0.030388773141843604 0.10449343403618903 0.084558067916046489 -0.030439270565849701 -0.03060934355364308 -0.030348987789616741 -0.030347229754646689 -0.03045595865315472 -0.030347191067990237 -0.030428677615281445 -0.030341202855569238 -0.030341202855569131 -0.030381942763688767 -0.030341201414258067 -0.03034393336894271 -0.030343594132685951 -0.030341202830423259 -0.030341202855569158
leaf_weight=0.59488226752728224 0.27244272083044041 0.68040965124964781 0.35615298431366671 0.58203099388629209 0.57556789182126522 0.36344679351896059 0.66531847231090047 0.26085173245519411 0.31622061412781555 0.26934065017849207 0.23738324269652344 0.30458815954625462 0.25870479736477137 0.22573449928313527 0.25618710927665234 0.31133514642715265 1.4121272712945936 0.30806947126984596 0.2557384539395583 0.39189040753990401 0.22374298330396403 4.3142152633517998 1.5677948445081695
leaf_count=32 23 34 29 37 19 30 32 18 23 14 21 27 18 20 19 28 127 25 23 35 20 388 141
internal_value=-0.000454586 0.0869593 -0.00857456 0.0122884 0.0927193 0.137471 0.186636 -0.0149385 -0.0148683 -0.0303844 -0.0304495 -0.0303605 -0.030396 -0.030351 -0.0303844 -0.0303439 -0.0303453 -0.0303676 -0.0303419 -0.0303415 -0.0303413 -0.0303412 -0.0303412
internal_weight=15.0042 1.27529 13.7289 4.13179 2.18636 1.60433 1.24089 1.94542 9.5971 3.99976 1.0735 2.92626 0.804158 2.61004 0.560775 5.59734 1.68457 0.545453 2.04927 5.24118 4.84929 4.62555 1.82353
internal_count=1183 66 1117 286 118 81 51 168 831 331 78 253 64 230 46 500 150 46 184 471 436 416 164
cat_boundaries=0 2 3 4 5
cat_threshold=2166767746 256 4 4 2
is_linear=0
shrinkage=0.03


Tree=5
num_leaves=25
num_cat=5
split_feature=119 121 106 114 5 119 102 53 114 123 102 116 118 122 122 120 120 122 119 70 118 30 54 3
split_gain=10.2439 13.7969 5.69779 11.0046 10.3624 8.89516 6.11851 3.00193 3.88861e-06 6.31003e-06 9.30961e-06 2.22928e-06 1.38974e-06 8.09833e-07 9.36503e-07 4.77544e-07 1.5177e-07 1.47701e-07 7.30536e-09 2.52413e-09 1.23724e-09 8.88178e-16 6.66134e-16 2.22045e-16
threshold=6.7500000000000009 19.500000000000004 0 1 4.6992187500000009 29.676282051282055 2 30.500000000000004 3 12.500000000000002 4 -0.069233507340181397 0.090126666054004975 9.0357142857142865 5.4272727272727286 2.5000000000000004 6.5000000000000009 36.618470149253739 13.583333333333334 1161.5000000000002 0.13235379581968951 30.500000000000004 -0.19622802734374997 -5.6992187499999991
decision_type=2 2 9 1 2 2 1 2 1 2 1 2 2 2 2 2 2 2 2 2 2 2 2 2
left_child=1 -1 3 7 -5 -6 -7 16 15 11 -11 -10 17 14 -13 -4 -2 -12 -15 20 21 -17 -20 -18
right_child=2 -3 8 4 5 6 -8 -9 9 10 12 13 -14 18 -16 19 23 -19 22 -21 -22 -23 -24 -25
leaf_value=-0.030663101769739607 -0.030355826956355927 0.15981228867930519 -0.030367737838991622 -0.030616470283797017 0.020328522845117148 0.23498419213291524 0.10126876171523655 0.075469000123739763 -0.030426115952456281 -0.030590980842204036 -0.030338557637985729 -0.030336851687257155 -0.030442292001097087 -0.030336812222235839 -0.030415840761337198 -0.030331005739697752 -0.030331005760118133 -0.030370515690631802 -0.030331004415012019 -0.03033365316470513 -0.030333324055958424 -0.030331005760118053 -0.030331005760118171 -0.030331005760118126
leaf_weight=0.60566489771008558 0.26448491774499405 0.78694229200482368 0.34575420804321755 0.56517281476408254 0.58932622242718946 0.56302127987146378 0.67989497166126944 0.28312977217137825 0.30700556095689613 0.26153496652841568 0.23044551722705342 0.29568581935018157 0.25116992276161909 0.21913683973252762 0.24871897604316473 4.2636556997895241 0.64764395356178261 0.29907543305307627 0.26985054928809482 0.38043522927910078 0.21720278169959772 0.22667538374662388 1.5003751590847958 0.7232024148106575
leaf_count=31 23 35 29 37 36 17 28 18 23 14 21 27 18 20 19 395 60 25 25 35 20 21 139 67
internal_value=-0.000531214 0.0769718 -0.00844836 0.0117065 0.0816837 0.116324 0.16184 -0.0147203 -0.0146382 -0.0303729 -0.0304361 -0.0303498 -0.0303842 -0.0303405 -0.0303729 -0.0303336 -0.030335 -0.0303566 -0.0303316 -0.0303313 -0.0303311 -0.030331 -0.030331 -0.030331
internal_weight=15.0252 1.39261 13.6326 4.31588 2.39742 1.83224 1.24292 1.91846 9.31672 3.883 1.04223 2.84077 0.780691 2.53377 0.544405 5.43372 1.63533 0.529521 1.98936 5.08797 4.70753 4.49033 1.77023 1.37085
internal_count=1183 66 1117 286 118 81 45 168 831 331 78 253 64 230 46 500 150 46 184 471 436 416 164 127
cat_boundaries=0 2 3 4 5 6
cat_threshold=2166767746 256 4 2 4 2
is_linear=0
shrinkage=0.03


Tree=6
num_leaves=28
num_cat=5
split_feature=106 119 123 53 116 114 116 116 119 114 118 53 114 121 54 123 123 119 122 122 115 120 119 53 5 120 70
split_gain=9.53032 21.6706 11.511 27.1742 6.23054 2.96838 1.15635 2.36041 0.000167804 5.05573e-05 5.33505e-05 7.14768e-06 4.33559e-06 6.53286e-06 9.43587e-06 2.80671e-06 1.77038e-06 1.74765e-06 6.01545e-07 8.97466e-07 5.06775e-07 4.80058e-07 1.33266e-07 2.41077e-09 3.50919e-09 4.79616e-14 3.10862e-15
threshold=0 8.6071428571428594 13.500000000000002 24.000000000000004 -0.082313187346189559 1 -0.086406686811195593 -0.094553609238297601 5.5833333333333348 2 0.026267491614147685 30.500000000000004 3 52.500000000000007 -0.19622802734374997 24.500000000000004 12.500000000000002 8.1666666666666696 9.810516066212271 5.4272727272727286 4 2.5000000000000004 16.583333333333339 30.500000000000004 4.6992187500000009 11.500000000000002 1180.5000000000002
decision_type=9 2 2 2 2 1 2 2 2 1 2 2 1 2 2 2 2 2 2 2 1 2 2 2 2 2 2
left_child=1 -1 4 -4 -3 -6 7 20 -8 10 -7 25 17 16 -15 -16 18 -10 19 -14 -2 -19 -20 26 -25 -11 -23
right_child=6 2 3 -5 5 9 8 -9 12 11 -12 -13 13 14 15 -17 -18 21 22 -21 -22 23 -24 24 -26 -27 -28
leaf_value=0.198571881430543 -0.030400976480554464 0.10084276230533562 -0.030732162769522019 0.27661216021876306 0.070236148475947488 -0.030814216200129415 -0.03081320449287565 0.078748909264115555 -0.030403134894822548 -0.030321104158241581 -0.030359507413202907 -0.030478633811952115 -0.03032621157896424 -0.030598172584897571 -0.030329359458345025 -0.030454101972572853 -0.030400979165550124 -0.030360426631219437 -0.030348582466553749 -0.030397798423689858 -0.030341408614853786 -0.030321119970838022 -0.030323528579646271 -0.030325190283744311 -0.030321119897012715 -0.030321120173422776 -0.030321116757432279
leaf_weight=0.78469020407646883 0.25191360991448164 0.4538464406505226 0.55272338166832902 0.48706156294792891 0.29609331581741571 0.60719990823417935 0.75496992003172536 0.27315982710569997 0.26543875038623799 0.20955843944102592 0.37605136353522539 0.34339885693043459 0.31846110243350212 0.24942461401224136 0.38581622391939152 0.28025195747613907 0.46902111452072848 0.30422680545598257 0.22203037422150362 0.31205919664353132 0.26245677378028631 3.290221481584013 1.3706480134278534 0.34964165650308121 0.41913636028766632 0.84875180851668119 0.29339280445128668
leaf_count=37 20 19 35 22 14 30 33 15 22 20 33 23 30 15 36 20 38 26 20 25 24 314 130 33 40 81 28
internal_value=-0.000584359 0.0178777 0.0267378 0.113236 -0.0019519 -0.0193529 -0.0137614 0.0074782 -0.0303845 -0.0304754 -0.0306403 -0.0303597 -0.0303466 -0.0303716 -0.0304408 -0.0303818 -0.030348 -0.0303283 -0.0303368 -0.0303616 -0.0303706 -0.030324 -0.030327 -0.0303214 -0.030323 -0.0303211 -0.0303211
internal_weight=15.0316 4.95938 4.17469 1.03978 3.1349 2.68105 10.0723 0.78753 9.28474 2.38496 0.983251 1.40171 8.52977 3.60771 0.915493 0.666068 2.69222 4.92206 2.2232 0.63052 0.51437 4.65662 1.59268 4.35239 0.768778 1.05831 3.58361
internal_count=1183 314 277 57 220 201 869 59 810 187 63 124 777 314 71 56 243 463 205 55 44 441 150 415 73 101 342
cat_boundaries=0 1 2 3 4 5
cat_threshold=2166801538 2 1 4 1
is_linear=0
shrinkage=0.03


Tree=7
num_leaves=25
num_cat=7
split_feature=106 119 118 5 119 53 114 119 114 114 116 118 116 123 114 52 53 116 123 114 122 114 52 3
split_gain=8.9086 16.7051 6.79192 8.19317 11.8639 8.1593 1.62734 0.000140029 2.95114e-05 2.21469e-05 1.02721e-05 4.01464e-06 2.32826e-06 2.21303e-06 2.15841e-06 2.00036e-06 1.72048e-06 4.87152e-07 3.99787e-07 5.69567e-07 3.00984e-07 1.15619e-07 1.61379e-08 1.06813e-08
threshold=0 8.6071428571428594 0.030736374745884736 4.6992187500000009 29.676282051282055 24.000000000000004 1 5.5833333333333348 2 3 0.13146203809740437 0.091363392558890782 -0.038864711740815343 57.500000000000007 4 19.500000000000004 30.500000000000004 -0.060376802011698837 19.500000000000004 5 6.0250000000000012 6 28.000000000000004 -5.6992187499999991
decision_type=9 2 2 2 2 2 1 2 1 1 2 2 2 2 1 2 2 2 2 1 2 1 2 2
left_child=1 -1 3 8 9 -6 -2 -8 -3 -5 12 21 14 18 15 -9 22 -17 20 -20 -14 23 -16 -4
right_child=6 2 11 4 5 -7 7 10 -10 -11 -12 -13 13 -15 16 17 -18 -19 19 -21 -22 -23 -24 -25
leaf_value=0.16593654584995157 0.021959555905207904 -0.030356001440313255 -0.030319717321869818 -0.030341227337473808 0.068455374836063579 0.20978422466677463 -0.030781910297302158 -0.030461505663141913 -0.030717360832885159 -0.030703880584306772 -0.030485594799363722 -0.030431023427902503 -0.030336548206314585 -0.030409987873502322 -0.030322247759549267 -0.030392600882132859 -0.030412018455734276 -0.030331960678115527 -0.03032267776898314 -0.030374380021276945 -0.030315241041147491 -0.030337505158492453 -0.030312895322942755 -0.030311517563984893
leaf_weight=0.91404598951339711 0.56758009176701307 0.40585450455546379 0.24906658660620451 0.28408870846033096 0.90058421250432708 0.62127452157437801 0.70145432557910403 0.30252862628548782 0.40775515511631999 0.32486564014107022 0.42034515086561519 0.47046789526939392 0.68775158468634057 0.26362812425941218 0.23074466921389081 0.24338314868509769 0.20837522204965353 0.23373247962445021 0.56621634960174561 0.28997141402214754 4.5054070614278316 0.31718905083835103 0.59225250408053398 0.3356614513322711
leaf_count=36 39 36 24 26 35 22 32 21 23 16 33 36 64 21 22 20 17 22 54 25 439 29 58 33
internal_value=-0.000652738 0.0169755 0.0247586 0.0504492 0.0813723 0.126151 -0.013545 -0.0303744 -0.0305371 -0.0305347 -0.030341 -0.03036 -0.0303335 -0.0303249 -0.0303635 -0.0304012 -0.030335 -0.0303629 -0.0303212 -0.0303402 -0.0303181 -0.0303229 -0.0303155 -0.030315
internal_weight=15.0442 5.23085 4.31681 2.94442 2.13081 1.52186 9.81337 9.24579 0.81361 0.608954 8.54434 1.37238 8.12399 6.31297 1.81102 0.779644 1.03137 0.477116 6.04935 0.856188 5.19316 0.901917 0.822997 0.584728
internal_count=1183 316 280 158 99 57 867 828 59 42 796 122 763 603 160 63 97 42 582 79 503 86 80 57
cat_boundaries=0 2 3 4 5 6 7 8
cat_threshold=2166801536 256 2 4 4 1 4 4
is_linear=0
shrinkage=0.03


Tree=8
num_leaves=29
num_cat=4
split_feature=106 123 116 53 114 119 116 116 119 119 114 119 116 54 114 56 121 123 56 119 120 119 122 118 119 70 118 123
split_gain=8.37539 15.4295 16.4503 7.06406 6.85723 6.02943 6.05003 1.15143 2.86125 0.000155004 5.24554e-05 4.67588e-05 4.04662e-05 7.70016e-06 4.99814e-06 8.03748e-06 1.16284e-05 3.79163e-06 2.23727e-06 1.45068e-06 3.95059e-07 2.8653e-07 1.5012e-07 1.03322e-07 1.30191e-07 8.80622e-09 8.47947e-10 6.89753e-10
threshold=0 13.500000000000002 0.076330386988442647 24.000000000000004 1 8.6071428571428594 -0.039137149562858631 -0.086406686811195593 50.362500000000004 5.5833333333333348 2 10.583333333333334 0.038071811978491202 -0.19622802734374997 3 30.500000000000004 53.500000000000007 12.500000000000002 16.500000000000004 8.1666666666666696 2.5000000000000004 13.583333333333334 9.0357142857142865 0.032563267459280128 29.225000000000005 1161.5000000000002 0.12145307471491074 -10.499999999999998
decision_type=9 2 2 2 1 2 2 2 2 2 1 2 2 2 1 2 2 2 2 2 2 2 2 2 2 2 2 2
left_child=1 4 3 -3 11 -6 -7 8 10 -9 -2 -1 -8 -13 19 17 -17 21 -19 -11 -21 -16 -23 24 -15 26 -22 -25
right_child=7 2 -4 -5 5 6 12 9 -10 14 -12 13 -14 23 15 16 -18 18 -20 20 25 22 -24 27 -26 -27 -28 -29
leaf_value=-0.030739599148713912 -0.030922196894346572 -0.030695002559319978 0.26805121571922308 0.12896496280031244 0.13715359035334057 0.082818970537440986 -0.030372381396307727 -0.030787980974193396 0.093634773364476898 -0.030379425429762661 -0.030329905425628821 -0.030481997936164781 -0.030771036966043455 -0.030306023680784278 -0.030345242899958935 -0.030340351306793124 -0.030616696617379251 -0.030336618279512503 -0.030439120088350289 -0.030339201576198987 -0.030302220059808579 -0.030327859566682241 -0.030307072334721779 -0.030304614891165219 -0.030334457566923927 -0.030307125938482567 -0.030304146538046316 -0.030302218719644607
leaf_weight=0.3589465767145158 0.24639157857745786 0.450410461053252 0.50063492543995369 0.55886220838874578 0.53497198224067721 0.78570738807320606 0.43949807342141833 0.72296174522489209 0.24086997006088495 0.25018237810581911 0.29653596598654985 0.32438336033374038 0.47882803156971931 0.24955039378255606 0.25984490849077646 0.31331598758697499 0.24358766060322523 0.34606349747627962 0.42949069105088711 0.28671280201524485 3.5052988985553388 0.39943957049399603 1.4394056145101783 0.19883584324270487 0.3456858079880476 0.38024899829179037 0.21844281069934357 0.23697628267109394
leaf_count=21 15 31 17 16 19 24 38 33 16 22 28 22 25 25 24 29 15 32 32 26 355 38 144 20 32 38 22 24
internal_value=-0.000698646 0.016208 0.127454 0.0577131 0.0147177 0.0492907 0.0217066 -0.0133378 0.00757967 -0.0303671 -0.0305987 -0.0304351 -0.0305802 -0.0303545 -0.0303295 -0.0303569 -0.0304612 -0.0303367 -0.0303934 -0.0303092 -0.0303052 -0.0303158 -0.0303116 -0.0303144 -0.0303225 -0.0303028 -0.0303023 -0.0303033
internal_weight=15.0421 5.46329 1.50991 1.00927 3.95338 2.23901 1.70403 9.57879 0.783798 8.795 0.542928 1.71438 0.918326 1.35543 8.07203 3.43115 0.556904 2.87424 0.775554 4.64089 4.3907 2.09869 1.83885 1.03105 0.595236 4.10399 3.72374 0.435812
internal_count=1183 314 64 47 250 106 87 869 59 810 43 144 63 123 777 314 44 270 64 463 441 206 182 101 57 415 377 44
cat_boundaries=0 1 2 3 4
cat_threshold=2166801538 4 1 4
is_linear=0
shrinkage=0.03


Tree=9
num_leaves=24
num_cat=5
split_feature=106 5 119 118 114 118 116 114 119 4 119 118 116 116 114 123 102 70 119 3 120 123 120
split_gain=7.83534 10.5067 13.6049 10.519 5.41255 3.41531 2.91143 1.5864 0.000133678 4.54284e-05 5.76366e-05 1.31824e-05 8.39285e-06 2.64157e-06 3.27782e-06 1.9439e-06 2.2372e-06 1.05883e-06 9.48186e-07 8.4784e-07 5.53956e-07 2.21817e-07 2.12813e-07
threshold=0 4.6992187500000009 5.0454545454545459 0.030736374745884736 1 0.0032444484331660682 0.076330386988442647 2 5.5833333333333348 0.38708496093750006 62.620192307692314 0.08765048776711569 0.13146203809740437 -0.082956096348329303 3 21.500000000000004 4 17.500000000000004 8.1666666666666696 -5.6992187499999991 2.5000000000000004 1.0000000180025095e-35 3.5000000000000004
decision_type=9 2 2 2 1 2 2 1 2 8 2 2 2 2 1 2 1 2 2 2 2 2 2
left_child=1 9 -3 4 6 -6 17 -2 -9 21 -11 19 13 14 -10 18 -17 -4 -15 -5 -20 -1 -18
right_child=7 2 3 11 5 -7 -8 8 12 10 -12 -13 -14 15 -16 16 22 -19 20 -21 -22 -23 -24
leaf_value=-0.030297766915758233 0.021037488153426133 0.21449726833597613 -0.030344278168943414 -0.030373939283633203 0.071131191331045091 0.15110315877103325 0.097026221698723228 -0.03076266515640563 -0.03030976070327758 -0.030894880670196502 -0.030414486815078547 -0.030549944799272668 -0.030457063467270933 -0.03034996288791077 -0.030437604036334141 -0.030405426162589871 -0.030340037838714837 -0.030430339101001076 -0.030344154716739215 -0.03030274308734527 -0.030297359735691483 -0.030340826087000967 -0.03030697576925518
leaf_weight=0.24293339811265446 0.5761424358934164 0.4873291291296481 0.26375908125191927 0.3654725095257163 1.1635806597769267 0.81883004307746876 0.23509519919753075 0.67243266291916093 0.38307180441915989 0.52370579726994038 0.39378739427775145 0.51427731104195118 0.39624502044171084 0.3561562523245837 0.34132521320133946 0.37374005001038313 0.25160149857401826 0.25120428390800953 0.23818648234009732 0.25597001798450925 5.1600196734070778 0.19338441360741854 0.57716106530278921
leaf_count=25 39 10 24 32 34 17 17 32 38 26 33 35 33 33 25 31 23 19 22 26 533 18 58
internal_value=-0.000748886 0.0154198 0.0651173 0.0462978 0.078192 0.104163 0.00954937 -0.0131167 -0.0303563 -0.0305689 -0.0306887 -0.0304376 -0.0303224 -0.0303155 -0.03037 -0.0303098 -0.0303445 -0.0303863 -0.0303026 -0.0303446 -0.0302994 -0.0303169 -0.030317
internal_weight=15.0354 5.70933 4.35552 3.86819 2.73247 1.98241 0.750059 9.32608 8.74994 1.35381 0.917493 1.13572 8.07751 7.68126 0.724397 6.95687 1.2025 0.514963 5.75436 0.621443 5.39821 0.436318 0.828763
internal_count=1183 316 214 204 111 51 60 867 828 102 59 93 796 763 63 700 112 43 588 58 555 43 81
cat_boundaries=0 2 3 4 5 6
cat_threshold=2166801536 256 4 2 4 2
is_linear=0
shrinkage=0.03


Tree=10
num_leaves=28
num_cat=6
split_feature=106 123 56 114 3 102 120 116 119 119 119 119 53 114 56 121 123 56 119 120 119 114 118 102 70 119 123
split_gain=7.40959 11.4016 9.61789 5.69576 4.5037 8.68676 1.55282 1.12528 2.66334 0.000154383 7.68819e-05 7.58754e-05 7.77018e-06 5.12349e-06 8.27463e-06 1.21885e-05 3.1641e-06 1.94959e-06 1.20811e-06 3.27395e-07 2.84585e-07 1.81289e-07 1.75035e-07 1.30222e-07 6.95963e-09 7.40234e-10 5.89055e-10
threshold=0 13.500000000000002 24.000000000000004 1 -5.6992187499999991 2 11.500000000000002 -0.086406686811195593 51.717948717948723 5.5833333333333348 10.583333333333334 24.514285714285716 30.500000000000004 3 30.500000000000004 53.500000000000007 12.500000000000002 16.500000000000004 8.1666666666666696 2.5000000000000004 13.583333333333334 4 0.032563267459280128 5 1161.5000000000002 20.100000000000005 -10.499999999999998
decision_type=9 2 2 1 2 1 2 2 2 2 2 2 2 1 2 2 2 2 2 2 2 1 2 1 2 2 2
left_child=1 3 -3 10 6 -6 -5 8 11 -9 -1 -2 22 18 16 -16 20 -18 -11 -20 -15 -22 23 -12 25 -21 -24
right_child=7 2 -4 4 5 -7 -8 9 -10 13 12 -13 -14 14 15 -17 17 -19 19 24 21 -23 26 -25 -26 -27 -28
leaf_value=-0.030837515864096825 -0.030330311236187457 0.013795556494734877 0.15804974538299665 0.042919060571497802 0.16030104806096715 0.0088329286767173561 -0.031100841768243775 -0.030779168975533996 0.087381345054560286 -0.030357120412047054 -0.030329009780737257 -0.031046364916429051 -0.030472004366853371 -0.030330127413026771 -0.03032136115284418 -0.03061100300024485 -0.030318416051760135 -0.030416722377292822 -0.030319233187362602 -0.030285520836884437 -0.030321298218013167 -0.030292104743695172 -0.030286688454494406 -0.030299695635807949 -0.030289058536810614 -0.030284446383549605 -0.030284407205557036
leaf_weight=0.35963631607592117 0.29565449245273967 0.66822939086705435 1.1019167723134158 0.40335330460220598 0.62422200944274664 0.75043448805808999 0.69385905936360359 0.69549337401985933 0.252933862619102 0.23578605335205782 0.2232777513563633 0.2423609821125865 0.31298607029020786 0.2478182381019004 0.29627697449177492 0.23405826091766357 0.32769834343343962 0.40713211707770824 0.27018850110471238 0.72811894770711738 0.21893315110355616 1.5247403196990488 0.18735570088028908 0.35046113561838843 0.35830773133784521 2.7819713028147817 0.22327244654297829
leaf_count=21 28 37 27 15 23 33 35 33 15 22 21 16 22 24 29 15 32 32 26 78 21 161 20 36 38 299 24
internal_value=-0.000783458 0.0148026 0.103594 0.0125869 0.0414358 0.0776136 -0.00388991 -0.0129259 0.00709272 -0.0303513 -0.0304494 -0.0306529 -0.0303418 -0.0303123 -0.0303408 -0.0304492 -0.0303197 -0.0303729 -0.0302911 -0.0302873 -0.0303 -0.0302958 -0.0303004 -0.0303111 -0.0302851 -0.0302847 -0.0302854
internal_weight=15.0165 5.899 1.77015 4.12886 2.47187 1.37466 1.09721 9.11747 0.790949 8.32652 1.65699 0.538015 1.29735 7.63103 3.25666 0.530335 2.72632 0.73483 4.37437 4.13859 1.99149 1.74367 0.984367 0.573739 3.8684 3.51009 0.410628
internal_count=1183 314 64 250 106 56 50 869 59 810 144 44 123 777 314 44 270 64 463 441 206 182 101 57 415 377 44
cat_boundaries=0 1 2 3 4 5 6
cat_threshold=2166801538 4 2 4 2 2
is_linear=0
shrinkage=0.03


Tree=11
num_leaves=21
num_cat=6
split_feature=106 119 118 5 119 105 116 123 119 114 116 118 116 114 114 120 123 57 114 122
split_gain=6.94933 9.10031 5.71419 5.80942 5.14896 4.51717 1.75612 1.55164 0.000111387 6.0918e-05 1.13188e-05 9.40586e-06 3.56875e-06 2.83787e-06 1.88997e-06 9.46529e-07 5.17482e-07 4.99286e-07 7.2527e-07 2.54287e-08
threshold=0 6.7500000000000009 0.030736374745884736 4.6992187500000009 29.676282051282055 1 0.047458953705786108 55.000000000000007 6.1250000000000009 2 0.13146203809740437 0.099514663774043569 -0.082956096348329303 3 4 2.5000000000000004 19.500000000000004 -1.0000000180025095e-35 5 39.723753524261767
decision_type=9 2 2 2 2 9 2 2 2 1 2 2 2 1 1 2 2 2 1 2
left_child=1 -1 3 9 6 -6 -5 8 -2 -3 12 17 13 -10 -14 -16 -17 -4 19 -19
right_child=7 2 11 4 5 -7 -8 -9 10 -11 -12 -13 14 -15 15 16 -18 18 -20 -21
leaf_value=0.12102055292252135 -0.03069307539813719 -0.030331954398939161 -0.030353822649519066 -0.030855201993268529 0.13844748212475011 0.047609903443938867 0.054304286692613467 0.020402601630410584 -0.030304150716427471 -0.0308545603616086 -0.030488617954697664 -0.030488830086689244 -0.030356786423861346 -0.030423963721245818 -0.030331575868546672 -0.030280225641072755 -0.030307312568173608 -0.030290410934748338 -0.030344955088038653 -0.030275920526811839
leaf_weight=0.9797027502208947 0.72919397521763674 0.37496511079370975 0.27276357728987932 0.57032321300357613 0.87553610373288393 1.1267643738538029 0.35272321105003357 0.58032144792378026 0.37336084432899952 0.4320425130426887 0.29005534201860417 0.42094768863171339 0.36649018712341785 0.33989430125802478 0.39555603452027099 5.0761445239186287 0.72549573797732581 0.19710642378777266 0.26828757300972916 0.24382263328880072
leaf_count=20 39 36 25 32 23 34 20 38 38 23 24 30 33 26 38 556 75 21 25 27
internal_value=-0.000812916 0.0141279 0.0212465 0.0406483 0.0603066 0.08733 0.00168675 -0.0127067 -0.030339 -0.0306117 -0.0303048 -0.0303702 -0.0302975 -0.0303612 -0.0302906 -0.0302867 -0.0302836 -0.0303193 -0.0303061 -0.0302824
internal_weight=14.9915 6.11499 5.13528 3.73235 2.92535 2.0023 0.923046 8.87651 8.29619 0.807008 7.567 1.40293 7.27694 0.713255 6.56369 6.1972 5.80164 0.98198 0.709217 0.440929
internal_count=1183 316 296 168 109 57 52 867 829 59 790 128 766 64 702 669 631 98 73 48
cat_boundaries=0 2 3 4 5 6 7
cat_threshold=2166801536 256 2 4 4 2 4
is_linear=0
shrinkage=0.03


Tree=12
num_leaves=29
num_cat=5
split_feature=106 123 116 114 119 3 102 122 116 119 119 121 119 53 114 56 121 123 56 119 118 119 119 120 114 123 70 123
split_gain=6.59504 8.87026 7.12594 4.95881 3.83235 3.685 6.24611 1.48522 1.09471 2.40993 0.00014851 0.000134947 0.000106538 7.40849e-06 4.99734e-06 8.43257e-06 1.37508e-05 2.68026e-06 1.63713e-06 1.09299e-06 4.88994e-07 3.66289e-07 2.83334e-07 2.75077e-07 1.33946e-07 2.35479e-08 9.69066e-09 4.92256e-10
threshold=0 13.500000000000002 0.076330386988442647 1 29.676282051282055 -5.6992187499999991 2 11.962222222222225 -0.086406686811195593 52.392857142857146 5.5833333333333348 13.500000000000002 10.583333333333334 30.500000000000004 3 30.500000000000004 62.500000000000007 12.500000000000002 16.500000000000004 8.1666666666666696 0.032563267459280128 13.583333333333334 27.166666666666668 2.5000000000000004 4 45.500000000000007 1161.5000000000002 -10.499999999999998
decision_type=9 2 2 1 2 2 1 2 2 2 2 2 2 2 1 2 2 2 2 2 2 2 2 2 1 2 2 2
left_child=1 3 4 12 -3 7 -7 -5 9 11 -10 -2 -1 20 19 17 -17 21 -19 -12 22 -16 -14 -21 -23 26 -25 -22
right_child=8 2 -4 5 -6 6 -8 -9 10 -11 14 -13 13 -15 15 16 -18 18 -20 23 27 24 -24 25 -26 -27 -28 -29
leaf_value=-0.030919643186572279 -0.031298827733960012 -0.031181747334206294 0.15775379428238218 0.0403744007453406 0.080773721789291347 0.1288001819205877 0.007253804352942185 -0.030952706379308928 -0.030764645960185549 0.079401215168874814 -0.030339426997876812 -0.030322178864682001 -0.030285033997817609 -0.03046500226970484 -0.030319727926708007 -0.030301394346944812 -0.030617401551307016 -0.030302325327285148 -0.030394793961153039 -0.030301328431815242 -0.030269832905377658 -0.03030238029925442 -0.030328814083293281 -0.030268051991753118 -0.030276532621783907 -0.030279601732790914 -0.030273523802462701 -0.030267684542051684
leaf_weight=0.36216874048113834 0.21337207965552618 0.4218775946646931 0.78701062500476826 0.41442677564919017 0.79137276019901037 0.74376556556671858 0.77910029795020797 0.71783201489597559 0.66605111397802819 0.27021416369825602 0.22349181957542885 0.31575640849769115 0.21284661814570405 0.30269866809248924 0.23612251970917064 0.28794852551072825 0.21756934933364391 0.31059045158326615 0.38707709964364767 0.25516365468502078 0.17653662152588367 0.20629695523530245 0.35483535751700401 3.1505073374137291 1.4395431363955138 0.18291811458766449 0.32097270339727391 0.21037620864808559
leaf_count=21 14 18 17 12 29 23 33 38 33 14 22 31 23 22 24 30 14 32 32 26 20 21 34 359 161 20 36 24
internal_value=-0.000830975 0.0136127 0.0874492 0.010907 0.041844 0.0361422 0.0666169 -0.00484572 -0.012523 0.00650862 -0.030336 -0.030716 -0.0304663 -0.0303357 -0.0302965 -0.0303254 -0.0304374 -0.0303034 -0.0303536 -0.0302749 -0.0302947 -0.0302848 -0.0303124 -0.0302712 -0.0302798 -0.0302691 -0.0302686 -0.0302687
internal_weight=14.9584 6.27485 2.00026 4.27459 1.21325 2.65512 1.52287 1.13226 8.6836 0.799343 7.88425 0.529128 1.61946 1.25729 7.2182 3.08515 0.505518 2.57963 0.697668 4.13305 0.954595 1.88196 0.567682 3.90956 1.64584 3.6544 3.47148 0.386913
internal_count=1183 314 64 250 47 106 56 50 869 59 810 45 144 123 777 314 44 270 64 463 101 206 57 441 182 415 395 44
cat_boundaries=0 1 2 3 4 5
cat_threshold=2166801538 4 2 4 2
is_linear=0
shrinkage=0.03


Tree=13
num_leaves=31
num_cat=7
split_feature=106 5 56 119 123 122 114 102 116 115 119 114 119 119 121 116 123 114 56 121 119 123 56 119 119 119 120 114 123 70
split_gain=6.19377 7.79764 8.33477 10.0109 7.2139 4.09005 3.73988 1.21961 1.08085 2.35696 0.000311677 0.000137392 0.000135674 6.72878e-05 7.31997e-05 1.92209e-05 1.11379e-05 4.56661e-06 7.70865e-06 1.25668e-05 2.65499e-06 2.4476e-06 1.4951e-06 9.98728e-07 3.34707e-07 3.14283e-07 2.51188e-07 1.22282e-07 2.15001e-08 8.85603e-09
threshold=0 4.6992187500000009 24.000000000000004 5.4500000000000011 22.500000000000004 26.176587301587304 1 2 -0.086406686811195593 3 8.6071428571428594 4 5.5833333333333348 57.390374331550809 51.500000000000007 0.038071811978491202 1.0000000180025095e-35 5 30.500000000000004 62.500000000000007 37.393750000000004 12.500000000000002 16.500000000000004 8.1666666666666696 13.583333333333334 35.303030303030312 2.5000000000000004 6 45.500000000000007 1161.5000000000002
decision_type=9 2 2 2 2 2 1 1 2 1 2 1 2 2 2 2 2 1 2 2 2 2 2 2 2 2 2 1 2 2
left_child=1 13 5 -4 6 7 -5 -3 9 -2 -7 25 -10 14 -1 -8 -15 23 21 -20 -11 24 -23 -14 -19 -12 -25 -26 29 -28
right_child=8 2 3 4 -6 10 15 -9 12 20 11 -13 17 16 -16 -17 -18 18 19 -21 -22 22 -24 26 27 -27 28 -29 -30 -31
leaf_value=-0.03058480739046638 0.078344516169471648 0.082573195988002682 0.20651476440287952 0.062102002155688021 0.13943187889291495 -0.031794293937979598 -0.030366075209375332 0.019504607519158362 -0.030741724266915845 -0.030294031306074651 -0.030277214385789255 -0.031073374257501785 -0.030329307475026261 -0.030325689181096075 -0.031189954950026282 -0.030689372860363835 -0.030587248659865268 -0.030310197138813125 -0.030292404498932429 -0.030598995260666874 -0.030429802863835485 -0.030293304250734066 -0.030382991343136018 -0.030292335328821512 -0.030293355962644 -0.030331259089096192 -0.030260060564246214 -0.030268289732187717 -0.03027126218536878 -0.030265369785914546
leaf_weight=0.41651550773531176 0.27065354026854038 0.52089484129101038 0.50000236928463015 0.94804903306066957 0.69328106194734562 0.3415554631501434 0.37041759118437823 0.58685297053307317 0.64684101659804571 0.31123044900595953 0.18910400383174419 0.45538385305553675 0.21695791091769923 0.39407826121896505 0.31667632237076759 0.29918059334158897 0.23324733320623636 0.22921501100063402 0.27952003479003895 0.21126429922878742 0.22214710153639317 0.30149951763451088 0.37578095775097609 0.24769482575356994 0.20025869738310575 0.19848544336855412 3.0581910833716401 1.3973729694262145 0.17756023444235314 0.3115691877901553
leaf_count=32 9 16 6 29 14 8 34 27 33 33 21 20 22 39 15 18 16 24 30 14 17 32 32 26 21 19 359 161 20 36
internal_value=-0.000852489 0.0130208 0.0501786 0.0848008 0.0584663 0.00772272 0.0237666 0.0491613 -0.0123033 0.00623844 -0.0310298 -0.03072 -0.030326 -0.030651 -0.0308462 -0.0305105 -0.0304229 -0.0302876 -0.0303157 -0.0304244 -0.0303506 -0.0302944 -0.0303431 -0.0302667 -0.0302763 -0.0303049 -0.0302631 -0.0302714 -0.0302611 -0.0302606
internal_weight=14.9215 6.46372 5.10321 2.81093 2.31093 2.29228 1.61765 1.10775 8.45776 0.804031 1.18453 0.842973 7.65373 1.36052 0.733192 0.669598 0.627326 7.00688 2.99491 0.490784 0.533378 2.50413 0.67728 4.01197 1.82685 0.387589 3.79502 1.59763 3.54732 3.36976
internal_count=1183 314 212 101 95 111 81 43 869 59 68 60 810 102 47 52 55 777 314 44 50 270 64 463 206 40 441 182 415 395
cat_boundaries=0 1 2 3 4 5 6 7
cat_threshold=2166801538 1 2 4 4 4 2
is_linear=0
shrinkage=0.03


Tree=14
num_leaves=30
num_cat=5
split_feature=106 5 56 121 70 122 119 116 120 102 119 114 119 119 121 123 114 56 121 119 123 56 119 119 119 120 114 123 70
split_gain=5.81941 7.01898 6.96224 8.03726 3.85736 3.76583 1.77786 1.06632 2.31269 1.00785 0.000283961 0.000125634 0.00012395 6.15256e-05 6.68861e-05 1.01817e-05 4.17311e-06 7.04679e-06 1.14848e-05 3.01571e-06 2.23533e-06 1.36539e-06 9.12663e-07 3.05869e-07 2.87035e-07 2.29398e-07 1.11654e-07 1.96389e-08 8.08868e-09
threshold=0 4.6992187500000009 24.000000000000004 19.500000000000004 24.500000000000004 26.176587301587304 18.550000000000004 -0.086406686811195593 4.5000000000000009 1 8.6071428571428594 2 5.5833333333333348 57.390374331550809 51.500000000000007 1.0000000180025095e-35 3 30.500000000000004 62.500000000000007 30.026315789473689 12.500000000000002 16.500000000000004 8.1666666666666696 13.583333333333334 35.303030303030312 2.5000000000000004 4 45.500000000000007 1161.5000000000002
decision_type=9 2 2 2 2 2 2 2 2 1 2 1 2 2 2 2 1 2 2 2 2 2 2 2 2 2 1 2 2
left_child=1 13 5 6 -5 9 -4 8 -2 -3 -7 24 -9 14 -1 -15 22 20 -19 -10 23 -22 -14 -18 -12 -24 -25 28 -27
right_child=7 2 3 4 -6 10 -8 12 19 -11 11 -13 16 15 -16 -17 17 18 -20 -21 21 -23 25 26 -26 27 -28 -29 -30
leaf_value=-0.030567468211933967 0.07695123793474104 0.074653032038353453 0.05576978243050406 0.071776600538043106 0.15343902359562403 -0.031738922465030406 -0.030646536607175461 -0.030719498750838688 -0.030295876589334001 0.018585383777781565 -0.030268947966172507 -0.03104153010458047 -0.030319492828879344 -0.03031597243773438 -0.031154414135342031 -0.03056977163428188 -0.030300952379261961 -0.030283683648430253 -0.030581141141539092 -0.030440552151818796 -0.030284556028958364 -0.030371545539042265 -0.030283612622449892 -0.030284603422266427 -0.030321369558142158 -0.030252307690975529 -0.030260292655244183 -0.030263173863272628 -0.030257457706734499
leaf_weight=0.40443143807351567 0.2733583375811558 0.55825928132981062 0.34564634039998088 1.1428034370765092 0.95612374786287535 0.33203051984310128 0.56369530223309994 0.62817128095775832 0.31144345551729202 0.5972389876842501 0.18356449622660875 0.44237174931913614 0.2106129648163918 0.38255221676081419 0.3076624209061265 0.22648128587752581 0.22250752802938301 0.27133590448647726 0.20513838622719049 0.22217392176389694 0.29267210513353337 0.36481031309813261 0.24044253490865264 0.19439547695219517 0.19268118869513273 2.9685569135472187 1.3564272765070198 0.17235789820551861 0.30243879370391358
leaf_count=32 9 16 16 35 14 8 36 33 33 27 21 20 22 39 15 16 24 30 14 17 32 32 26 21 19 359 161 20 36
internal_value=-0.00087655 0.0124657 0.0466357 0.0767001 0.108976 0.00741792 0.00220084 -0.0120859 0.00599363 0.0456735 -0.0309989 -0.0306988 -0.0303163 -0.0306317 -0.0308211 -0.0304104 -0.0302791 -0.0303063 -0.0304117 -0.0303561 -0.0302856 -0.0303328 -0.0302588 -0.0302681 -0.0302958 -0.0302553 -0.0302633 -0.0302533 -0.0302528
internal_weight=14.8724 6.63554 5.31442 3.00827 2.09893 2.30615 0.909342 8.23684 0.806976 1.1555 1.15065 0.818617 7.42987 1.32113 0.712094 0.609034 6.8017 2.90729 0.476474 0.533617 2.43081 0.657482 3.89441 1.77333 0.376246 3.6838 1.55082 3.44335 3.271
internal_count=1183 314 212 101 49 111 52 869 59 43 68 60 810 102 47 55 777 314 44 50 270 64 463 206 40 441 182 415 395
cat_boundaries=0 1 2 3 4 5
cat_threshold=2166801538 2 4 4 2
is_linear=0
shrinkage=0.03


Tree=15
num_leaves=26
num_cat=5
split_feature=106 119 70 120 119 119 116 123 119 114 119 119 114 122 114 123 116 119 56 118 120 120 114 123 53
split_gain=5.50196 6.86036 10.0531 4.70578 7.33843 4.97896 3.18842 0.000223724 0.000120853 0.000102807 9.30347e-05 5.95162e-05 2.06909e-05 1.76704e-05 1.56411e-05 6.4379e-06 3.6842e-06 3.43506e-06 2.42413e-06 4.79295e-06 1.94964e-06 1.43482e-06 8.78808e-07 4.55585e-07 1.56538e-07
threshold=0 59.690476190476197 24.500000000000004 46.500000000000007 6.7500000000000009 29.676282051282055 -0.12767789255691855 13.500000000000002 14.583333333333334 1 6.1250000000000009 37.909090909090914 2 38.09437254155565 3 21.500000000000004 -0.082956096348329303 36.479166666666679 30.500000000000004 -0.042803338938167589 25.500000000000004 2.5000000000000004 4 22.500000000000004 24.000000000000004
decision_type=9 2 2 2 2 2 2 2 2 1 2 2 1 2 1 2 2 2 2 2 2 2 1 2 2
left_child=1 2 3 4 -1 7 -2 14 -5 -3 13 -10 -12 -8 -6 20 17 -14 21 -20 -11 -18 -21 -23 -22
right_child=6 9 -4 8 5 -7 10 -9 11 15 12 -13 16 -15 -16 -17 18 -19 19 22 24 23 -24 -25 -26
leaf_value=0.14513971674173962 0.07216883725163642 -0.030902879101026119 0.11332310707725478 -0.031223078294469159 -0.030285151379383757 0.057203436699554466 -0.030497218305514148 -0.031349280056403458 -0.030352012669869574 -0.03038548769091954 -0.030504437702690436 -0.030920850941148242 -0.030275486581805656 -0.030786705472436855 -0.030594953317188058 -0.030514517012774783 -0.030321796766171211 -0.030418090471859983 -0.030411388825850698 -0.030248633456272607 -0.030258071029533585 -0.030248949287337783 -0.030314261637785434 -0.030277083192243967 -0.030295446945624065
leaf_weight=0.50245171412825618 0.28317912947386314 0.51006220281124093 1.421091381460428 0.47334826737642266 0.27176596131175756 1.3265334796160457 0.40042815264314402 0.4344684649258852 0.38316372130066156 0.24628963228315115 0.36687847878783941 0.29145767074078321 0.31989293918013384 0.3607282368466258 0.31863597780466102 0.19697782304137945 0.28652209881693291 0.28970122709870338 0.28670935239642859 0.57802919670939445 0.1839808551594615 3.9934791615232825 0.26913807820528723 0.59524006024003018 0.22319933399558067
leaf_count=7 7 27 28 23 30 39 28 15 37 22 33 17 36 16 20 14 29 23 27 71 22 492 28 68 24
internal_value=-0.000890833 0.0119907 0.0447784 0.0204375 0.0410703 0.0188325 -0.0118936 -0.0308326 -0.0308556 -0.0305661 -0.0303195 -0.0305978 -0.0302851 -0.0306344 -0.0304523 -0.0303642 -0.030273 -0.0303433 -0.0302659 -0.0303054 -0.0303189 -0.0302567 -0.0302695 -0.0302526 -0.0302786
internal_weight=14.8134 6.78343 5.42292 4.00183 2.85386 2.3514 8.02993 1.02487 1.14797 1.36051 7.74675 0.674621 6.98559 0.761156 0.590402 0.850448 6.61871 0.609594 6.00912 1.13388 0.65347 4.87524 0.847167 4.58872 0.40718
internal_count=1183 325 216 188 111 104 858 65 77 109 851 54 807 44 50 82 774 59 715 126 68 589 99 560 46
cat_boundaries=0 2 3 4 5 6
cat_threshold=19317890 256 1 2 4 4
is_linear=0
shrinkage=0.03


Tree=16
num_leaves=30
num_cat=7
split_feature=106 5 114 56 116 123 3 105 114 123 116 119 120 119 53 116 119 123 102 118 119 6 123 114 122 114 121 121 120
split_gain=5.65967 6.51437 5.16115 5.46459 4.69666 4.19331 3.18839 0.875099 0.000336272 8.39301e-05 6.99555e-05 6.44084e-05 5.57758e-05 3.32191e-05 3.99907e-05 4.39599e-06 2.83413e-06 2.26619e-06 2.45302e-06 8.0382e-07 7.03917e-07 5.32404e-07 2.19307e-07 1.84548e-07 9.56216e-08 1.99102e-07 3.48685e-08 2.70651e-08 1.67554e-08
threshold=0 4.6992187500000009 1 24.000000000000004 -0.082313187346189559 13.500000000000002 -5.6992187499999991 2 3 21.500000000000004 0.083517716337365697 5.5833333333333348 17.500000000000004 60.505769230769239 24.000000000000004 -0.082956096348329303 36.479166666666679 21.500000000000004 4 0.010617981832096121 7.2857142857142865 1.0000000180025095e-35 58.500000000000007 5 8.2796296296296319 6 46.500000000000007 29.500000000000004 4.5000000000000009
decision_type=9 2 1 2 2 2 2 9 1 2 2 2 2 2 2 2 2 2 1 2 2 2 2 1 2 1 2 2 2
left_child=1 9 -3 4 -4 6 -5 -8 10 13 19 -2 -10 14 -1 16 27 20 -19 -6 -17 -15 26 -22 25 -25 -20 -13 -26
right_child=11 2 3 5 8 -7 7 -9 12 -11 -12 15 -14 21 -16 17 -18 18 22 -21 23 -23 -24 24 28 -27 -28 -29 -30
leaf_value=-0.030337140074064982 -0.030596999382395337 0.10968852423891619 0.066901731060389755 -0.030738251441558857 -0.030336551156457201 0.094212755373928522 0.083493477726446302 0.027754601822785139 -0.03156814572367219 -0.031022297671739672 -0.030955023113106162 -0.030286863550627246 -0.031117849683269378 -0.030258850513828331 -0.030820351104064336 -0.030300244148879565 -0.03040425139385812 -0.030353822785131147 -0.030257985718114038 -0.030260120333777406 -0.030269202217253426 -0.030323674955677785 -0.030284882988454973 -0.030238878460633868 -0.030246707891756978 -0.030267594894977955 -0.030242667921359385 -0.030270533923286019 -0.030237617712737606
leaf_weight=0.26056320639327146 0.55778054799884547 0.8344306955114007 0.59629471134394396 0.61323365522548545 0.25120257074013352 1.390105018392205 0.51237499713897705 0.50174848875030897 0.51184147689491533 0.34009942691773165 0.20747237419709563 0.19290430191904295 0.47948106378316879 0.24967605900019407 0.37741846777498722 0.1930610230192541 0.29338968591764569 0.37653393531218171 0.25127775548025943 0.24425843730568886 0.21069290675222874 0.20987713523209095 0.22920524142682552 0.6265209480188787 0.19335065130144391 0.33268432365730394 0.2859466876834631 0.17351431213319302 3.2505244258791208
leaf_count=28 33 17 12 39 24 20 17 23 18 18 13 21 23 30 21 21 24 36 30 29 24 21 25 80 24 39 36 20 417
internal_value=-0.000905825 0.0115883 0.0403308 0.0294276 -0.00550932 0.0559482 0.0232623 0.0559161 -0.0309944 -0.0306105 -0.0304925 -0.012645 -0.0313503 -0.0304829 -0.030623 -0.0302613 -0.0303348 -0.0302532 -0.0302911 -0.0302989 -0.0302441 -0.0302885 -0.0302603 -0.0302418 -0.0302405 -0.0302488 -0.0302498 -0.0302791 -0.0302381
internal_weight=14.7475 7.58008 6.14244 5.30801 2.29055 3.01746 1.62736 1.01412 1.69426 1.43763 0.702933 7.16739 0.991323 1.09753 0.637982 6.60961 0.659808 5.9498 1.14296 0.495461 4.80683 0.459553 0.76643 4.61377 4.40308 0.959205 0.537224 0.366419 3.44388
internal_count=1183 353 235 218 119 99 79 40 107 118 66 830 41 100 49 797 65 732 127 53 605 51 91 584 560 119 66 41 441
cat_boundaries=0 2 3 4 5 6 7 8
cat_threshold=2166801538 256 2 2 4 2 2 4
is_linear=0
shrinkage=0.03


Tree=17
num_leaves=29
num_cat=4
split_feature=106 5 119 70 120 119 119 121 119 123 119 119 119 53 116 116 119 123 102 119 6 123 114 122 114 121 121 120
split_gain=5.33338 5.96775 4.67048 5.66194 4.22751 6.83397 5.5549 0.00023911 0.00012538 7.67637e-05 7.47099e-05 5.88232e-05 3.03675e-05 3.65364e-05 4.18407e-06 4.01515e-06 2.58837e-06 2.07016e-06 2.24085e-06 6.43118e-07 4.86284e-07 2.00292e-07 1.68553e-07 8.73521e-08 1.81881e-07 3.18472e-08 2.47178e-08 1.53016e-08
threshold=0 4.6992187500000009 59.690476190476197 24.500000000000004 46.500000000000007 6.7500000000000009 29.676282051282055 28.500000000000004 13.583333333333334 21.500000000000004 86.325000000000017 5.5833333333333348 60.505769230769239 24.000000000000004 0.0079052250897575522 -0.082956096348329303 36.479166666666679 21.500000000000004 1 7.2857142857142865 1.0000000180025095e-35 58.500000000000007 2 8.2796296296296319 3 46.500000000000007 29.500000000000004 4.5000000000000009
decision_type=9 2 2 2 2 2 2 2 2 2 2 2 2 2 2 2 2 2 1 2 2 2 1 2 1 2 2 2
left_child=1 9 3 4 5 -3 7 -7 -6 12 14 -2 13 -1 -4 16 26 19 -19 -17 -14 25 -21 24 -24 -20 -13 -25
right_child=11 2 10 -5 8 6 -8 -9 -10 -11 -12 15 20 -15 -16 17 -18 18 21 22 -22 -23 23 27 -26 -27 -28 -29
leaf_value=-0.030327141958768955 -0.030579087558726625 0.14695440122337344 -0.030371564355797274 0.0950454359362604 -0.031261546465327472 -0.030459956373883129 0.05961145731562309 -0.031398727421020733 -0.03053364200310851 -0.030991994930509817 -0.031070390955204572 -0.030278309565995712 -0.030251138488613702 -0.030795872749702705 -0.030544745046022264 -0.030291296814458059 -0.030392168506889777 -0.03034326660727641 -0.030250298248133627 -0.030261177597744476 -0.030314018907749558 -0.030276387759230527 -0.030231763342437993 -0.030239357532048799 -0.030259621149899905 -0.030235439678152433 -0.030262470391916901 -0.030230540414432572
leaf_weight=0.25294450391083934 0.54160792566835869 0.49308983422815877 0.24912532931193698 1.6085152896121142 0.41451444989070285 0.54387547168880734 1.6004057843238113 0.4431491307914257 0.43801892315968871 0.33036581147462118 0.28002806846052408 0.18725520931184281 0.24235785519704223 0.36655080271884799 0.25313664972782135 0.1874097124673425 0.28483019582927227 0.3655308885499835 0.24391241045668699 0.20451939851045609 0.20373822841793299 0.22249267436563969 0.60814539296552539 0.18768119579181108 0.32293580239638675 0.27756102941930294 0.16843037819489837 3.15518430294469
leaf_count=28 33 5 23 25 18 45 36 15 37 18 12 21 30 21 19 21 24 36 30 24 21 25 80 24 39 36 20 417
internal_value=-0.000915484 0.0111304 0.0379411 0.0476278 0.0282353 0.0445975 0.0250912 -0.0308814 -0.0308876 -0.0305925 -0.0306778 -0.0124231 -0.0304686 -0.0306045 -0.0304588 -0.0302535 -0.0303248 -0.0302456 -0.0302824 -0.0302369 -0.0302799 -0.0302526 -0.0302346 -0.0302333 -0.0302414 -0.0302424 -0.0302708 -0.030231
internal_weight=14.6773 7.71982 6.32386 5.54157 3.93305 3.08052 2.58743 0.987025 0.852533 1.39596 0.78229 6.9575 1.06559 0.619495 0.502262 6.41589 0.640516 5.77537 1.1095 4.66588 0.446096 0.743966 4.47847 4.27395 0.931081 0.521473 0.355686 3.34287
internal_count=1183 353 235 181 156 101 96 60 55 118 54 830 100 49 42 797 65 732 127 605 51 91 584 560 119 66 41 441
cat_boundaries=0 2 3 4 5
cat_threshold=2166801538 256 2 2 4
is_linear=0
shrinkage=0.03


Tree=18
num_leaves=29
num_cat=6
split_feature=106 5 119 119 114 56 105 119 119 123 119 119 119 53 116 116 119 123 102 119 6 123 114 122 114 121 121 120
split_gain=5.02818 5.49341 4.22668 4.87493 6.34462 6.5233 2.51961 0.00141962 0.0003376 7.02075e-05 6.82316e-05 5.37234e-05 2.77607e-05 3.33806e-05 3.82405e-06 3.6674e-06 2.36401e-06 1.89104e-06 2.04705e-06 5.87566e-07 4.44165e-07 1.82919e-07 1.53918e-07 7.9793e-08 1.66157e-07 2.90909e-08 2.25695e-08 1.39762e-08
threshold=0 4.6992187500000009 59.690476190476197 48.32222222222223 1 24.000000000000004 2 35.303030303030312 7.8333333333333348 21.500000000000004 86.325000000000017 5.5833333333333348 60.505769230769239 24.000000000000004 0.0079052250897575522 -0.082956096348329303 36.479166666666679 21.500000000000004 3 7.2857142857142865 1.0000000180025095e-35 58.500000000000007 4 8.2796296296296319 5 46.500000000000007 29.500000000000004 4.5000000000000009
decision_type=9 2 2 2 1 2 9 2 2 2 2 2 2 2 2 2 2 2 1 2 2 2 1 2 1 2 2 2
left_child=1 9 3 4 -3 7 -7 8 -6 12 14 -2 13 -1 -4 16 26 19 -19 -17 -14 25 -21 24 -24 -20 -13 -25
right_child=11 2 10 -5 5 6 -8 -9 -10 -11 -12 15 20 -15 -16 17 -18 18 21 22 -22 -23 23 27 -26 -27 -28 -29
leaf_value=-0.030317442295953779 -0.030561720747477619 0.1051923908320159 -0.030360482457867797 0.10191585883991112 -0.03162087343047025 0.072428212069423389 0.0055650684739764972 -0.032728733690509257 -0.030467396883595128 -0.030962592288475969 -0.031038194452860698 -0.030270011929887153 -0.030243657752868643 -0.030772131353107024 -0.030528509874783775 -0.030282618036340053 -0.030380451544036464 -0.030333027340492171 -0.030242841787901462 -0.030253392053081918 -0.030304653134877728 -0.030268146873368797 -0.030224861747270449 -0.030232228914817069 -0.030251887266873244 -0.030228427851075063 -0.030254650002251728 -0.030223675963433509
leaf_weight=0.24554621474817373 0.52589515829458822 0.85292332340031862 0.24184947693720449 1.0846065040677784 0.35584617592394374 1.3983322251588106 0.79594383481889974 0.60006534773856401 0.63744036480784416 0.32090188190340985 0.27202962711453438 0.18177004391327489 0.23525239434093237 0.35598789248615503 0.24578399956226349 0.18192225415259589 0.27651719143614173 0.35484575340524316 0.23676119185984112 0.19852524064481258 0.1977770384401083 0.21597492089495063 0.59030471742153168 0.18217667844146523 0.31347051868215192 0.26941940048709512 0.16349412454292178 3.0626194956712425
leaf_count=28 33 14 23 21 8 33 31 16 58 18 12 21 30 21 19 21 24 36 30 24 21 25 80 24 39 36 20 417
internal_value=-0.000926108 0.0107018 0.0358323 0.0446547 0.0312714 0.0146254 0.0481745 -0.0315766 -0.0308806 -0.0305749 -0.0306575 -0.0122026 -0.0304547 -0.0305865 -0.0304452 -0.030246 -0.0303151 -0.0302383 -0.030274 -0.0302298 -0.0302715 -0.030245 -0.0302276 -0.0302264 -0.0302342 -0.0302352 -0.0302627 -0.0302242
internal_weight=14.594 7.84029 6.48482 5.72516 4.64055 3.78763 2.19428 1.59335 0.993287 1.35547 0.759663 6.7537 1.03456 0.601534 0.487633 6.2278 0.621781 5.60602 1.077 4.52902 0.433029 0.722156 4.3471 4.14857 0.903775 0.506181 0.345264 3.2448
internal_count=1183 353 235 181 160 146 64 82 66 118 54 830 100 49 42 797 65 732 127 605 51 91 584 560 119 66 41 441
cat_boundaries=0 2 3 4 5 6 7
cat_threshold=2166801538 256 2 2 2 2 4
is_linear=0
shrinkage=0.03


Tree=19
num_leaves=29
num_cat=7
split_feature=106 5 120 114 55 3 123 105 116 105 118 123 119 119 53 116 119 123 102 119 6 123 114 122 114 121 121 120
split_gain=4.74206 5.07116 3.94121 3.30397 4.16558 3.35205 3.8723 1.49312 0.000719463 0.000222287 0.000143806 6.42097e-05 4.90673e-05 2.53775e-05 3.0498e-05 3.34983e-06 2.1591e-06 1.72753e-06 1.87003e-06 5.36848e-07 4.05699e-07 1.67071e-07 1.40571e-07 7.28987e-08 1.51802e-07 2.65665e-08 2.06109e-08 1.2767e-08
threshold=0 4.6992187500000009 74.500000000000014 1 19.500000000000004 -5.6992187499999991 13.500000000000002 2 -0.078016228837052698 3 -0.020378095298259923 21.500000000000004 5.5833333333333348 60.505769230769239 24.000000000000004 -0.082956096348329303 36.479166666666679 21.500000000000004 4 7.2857142857142865 1.0000000180025095e-35 58.500000000000007 5 8.2796296296296319 6 46.500000000000007 29.500000000000004 4.5000000000000009
decision_type=9 2 2 1 2 2 2 9 2 9 2 2 2 2 2 2 2 2 1 2 2 2 1 2 1 2 2 2
left_child=1 11 3 -3 9 6 8 -7 -6 -5 -4 13 -2 14 -1 16 26 19 -19 -17 -15 25 -21 24 -24 -20 -14 -25
right_child=12 2 10 4 5 7 -8 -9 -10 -11 -12 -13 15 20 -16 17 -18 18 21 22 -22 -23 23 27 -26 -27 -28 -29
leaf_value=-0.030308030515500923 -0.030544883429998188 0.094358527575971005 -0.03130920166389637 -0.031490043981271344 -0.032322038606243372 0.08659024466864805 0.055533565017953007 0.036818426549192228 -0.030573287907819522 -0.030465920215960181 -0.03047080574442159 -0.030934063078921655 -0.030261964289534291 -0.030236401797686382 -0.030749105946920745 -0.030274200562677586 -0.030369087173482651 -0.030323096377636416 -0.030235608062937448 -0.030245840932762884 -0.030295569315164923 -0.030260155025723143 -0.030218166565509026 -0.030225313563272654 -0.030244385648582488 -0.030221627141778749 -0.030247064071326803 -0.030217016359267043
leaf_weight=0.23836210975423433 0.51062969118356694 0.92025773413479328 0.42141364607959986 0.45310095697641362 0.353034260682761 1.4746106681413949 0.97230099700391293 0.8581485790200537 0.52902460377663374 0.32942316588014364 0.327007321640849 0.31170067144557823 0.17644412908703078 0.22835359489545226 0.34572165040299296 0.17659398773685087 0.26844377070665359 0.34446955705061555 0.22981797857210018 0.1927053052932024 0.1919885273091495 0.20964641682803631 0.5729835806414485 0.17683238210156593 0.30428038118407119 0.26151480572298169 0.15870133321732283 2.9727505501359701
leaf_count=28 33 14 17 21 11 26 18 32 40 27 29 18 21 30 21 21 24 36 30 24 21 25 80 24 39 36 20 417
internal_value=-0.000933732 0.0102953 0.0339038 0.0421438 0.0324749 0.0443487 0.0142424 0.0682808 -0.0312732 -0.0310589 -0.0309429 -0.0305579 -0.0119834 -0.0304412 -0.0305691 -0.0302386 -0.0303057 -0.0302312 -0.0302659 -0.030223 -0.0302634 -0.0302377 -0.0302208 -0.0302196 -0.0302273 -0.0302282 -0.0302549 -0.0302175
internal_weight=14.5103 7.95445 6.63832 5.8899 4.96964 4.18712 1.85436 2.33276 0.882059 0.782524 0.748421 1.31613 6.55581 1.00443 0.584084 6.04518 0.603589 5.44159 1.04545 4.39615 0.420342 0.700979 4.21955 4.02685 0.877264 0.491333 0.335145 3.14958
internal_count=1183 353 235 189 175 127 69 58 51 48 46 118 830 100 49 797 65 732 127 605 51 91 584 560 119 66 41 441
cat_boundaries=0 2 3 4 5 6 7 8
cat_threshold=2166801538 256 2 2 1 2 2 4
is_linear=0
shrinkage=0.03


Tree=20
num_leaves=29
num_cat=7
split_feature=106 119 70 120 119 119 119 121 119 119 114 119 114 120 114 116 119 123 102 119 118 123 114 122 114 121 121 120
split_gain=4.47407 4.76499 4.08372 3.86383 4.11687 4.3632 1.44286 0.000340423 0.00020888 7.15061e-05 6.0556e-05 4.48154e-05 1.36314e-05 8.60411e-06 3.21467e-06 3.05989e-06 1.97204e-06 1.57812e-06 1.70834e-06 4.90496e-07 1.90812e-07 1.52596e-07 1.28395e-07 6.66097e-08 1.38675e-07 2.42697e-08 1.88241e-08 1.16628e-08
threshold=0 59.690476190476197 24.500000000000004 46.500000000000007 6.7500000000000009 29.676282051282055 41.035714285714292 28.500000000000004 7.2857142857142865 37.909090909090914 1 5.5833333333333348 2 25.500000000000004 3 -0.082956096348329303 36.479166666666679 21.500000000000004 4 7.2857142857142865 0.025633765380663479 58.500000000000007 5 8.2796296296296319 6 46.500000000000007 29.500000000000004 4.5000000000000009
decision_type=9 2 2 2 2 2 2 2 2 2 1 2 1 2 1 2 2 2 1 2 2 2 1 2 1 2 2 2
left_child=1 2 3 4 -1 7 -7 12 -5 14 -3 -2 -6 -12 -10 16 26 19 -19 -17 -15 25 -21 24 -24 -20 -13 -25
right_child=11 10 -4 8 5 6 -8 -9 9 -11 13 15 -14 20 -16 17 -18 18 21 22 -22 -23 23 27 -26 -27 -28 -29
leaf_value=0.100384042553883 -0.030528556893642634 -0.030774880668103188 0.068259032442461606 -0.031419349355411672 -0.030263615858630803 0.07505977709842182 0.022061699586609865 -0.031501328649778976 -0.030257746698442549 -0.030926738570914949 -0.030448740913570999 -0.030254158870512471 -0.030553492718896253 -0.030276995953889316 -0.030405569061999677 -0.030266034941398304 -0.030358067442676145 -0.030313463684313049 -0.030228592044328709 -0.030238517779685673 -0.030236422502380914 -0.030252402434842035 -0.030211673196350954 -0.030218605665062404 -0.03023710882425951 -0.030215028691637967 -0.030239705732171229 -0.030210556387496777
leaf_weight=0.6562642958015189 0.49579932121560055 0.47363805677741744 2.0013320613652468 0.34187493566423632 0.25818651402369142 0.81022710446268309 1.0767012122087178 0.48066704068332911 0.26917343121021986 0.27494433103129268 0.39974539913237095 0.17127292836084862 0.3360109915956857 0.18844024138525128 0.26057847961783409 0.17142038373276669 0.26060319831594825 0.3343935664743185 0.2230768143199382 0.18705461220815778 0.23368706926703453 0.20350177912041545 0.55616706376895308 0.17164371302351389 0.29535753000527654 0.25384045718237758 0.15404791012406349 2.8855000338517129
leaf_count=7 33 29 33 10 31 18 26 16 33 17 34 21 23 22 23 21 24 36 30 24 31 25 80 24 39 36 20 417
internal_value=-0.000937756 0.00991081 0.0322974 0.0171921 0.0324003 0.0173367 0.0448185 -0.0309077 -0.0307981 -0.0305342 -0.0305047 -0.0117658 -0.0304275 -0.030349 -0.0303305 -0.0302315 -0.0302966 -0.0302243 -0.0302579 -0.0302163 -0.0302545 -0.0302307 -0.0302142 -0.0302131 -0.0302205 -0.0302214 -0.0302473 -0.030211
internal_weight=14.4252 8.06147 6.76596 4.76463 3.61806 2.96179 1.88693 1.07486 1.14657 0.804696 1.29551 6.36368 0.594198 0.821873 0.529752 5.86788 0.585924 5.28196 1.01481 4.26714 0.422127 0.680419 4.09572 3.90867 0.851525 0.476917 0.325321 3.05714
internal_count=1183 353 237 204 121 114 44 70 83 73 116 830 54 87 56 797 65 732 127 605 53 91 584 560 119 66 41 441
cat_boundaries=0 2 3 4 5 6 7 8
cat_threshold=2166801538 256 1 4 4 2 2 4
is_linear=0
shrinkage=0.03


Tree=21
num_leaves=30
num_cat=6
split_feature=106 5 120 121 56 116 122 70 119 118 123 105 119 121 119 105 116 119 123 102 119 6 123 114 122 114 121 121 120
split_gain=4.22313 4.49085 3.43759 2.82461 3.47009 2.32954 1.83963 1.56194 1.54197 0.000157062 7.18235e-05 5.71573e-05 4.09328e-05 3.85288e-05 2.55172e-05 2.19497e-05 2.795e-06 1.8012e-06 1.44168e-06 1.56067e-06 4.48153e-07 3.37937e-07 1.39365e-07 1.17268e-07 6.08491e-08 1.26689e-07 2.21709e-08 1.71924e-08 1.06527e-08
threshold=0 4.6992187500000009 74.500000000000014 19.500000000000004 24.000000000000004 -0.039486059836594041 6.2153846153846164 24.500000000000004 9.1000000000000014 -0.020378095298259923 21.500000000000004 1 5.5833333333333348 9.5000000000000018 60.505769230769239 2 -0.082956096348329303 36.479166666666679 21.500000000000004 3 7.2857142857142865 1.0000000180025095e-35 58.500000000000007 4 8.2796296296296319 5 46.500000000000007 29.500000000000004 4.5000000000000009
decision_type=9 2 2 2 2 2 2 2 2 2 2 9 2 2 2 9 2 2 2 1 2 2 2 1 2 1 2 2 2
left_child=1 10 3 5 8 -3 -7 -6 -5 -4 14 -8 -2 -13 15 -1 17 27 20 -20 -18 -16 26 -22 25 -25 -21 -14 -26
right_child=12 2 9 4 7 6 11 -9 -10 -11 -12 13 16 -15 21 -17 18 -19 19 22 23 -23 -24 24 28 -27 -28 -29 -30
leaf_value=-0.030782276890954949 -0.030512726361857836 0.047019887748742217 -0.031339051591041993 0.051288657667394488 0.04968129855688002 0.045373573607191069 -0.031037376796344995 0.095040139343507551 -0.030869885649426252 -0.030446601536577658 -0.030961277290370331 -0.030392867854463164 -0.030246587371833444 -0.030867627727345293 -0.030222507377206463 -0.03040457246922226 -0.030258114746588207 -0.030347378867240215 -0.03030412149458675 -0.030221787313511141 -0.030231413968312016 -0.030278143042420737 -0.030244882375259317 -0.030205373695192148 -0.030212098854216343 -0.030230049943544932 -0.030208629180265983 -0.030232567789113134 -0.03020429061375763
leaf_weight=0.23677913378924131 0.48139209905639369 1.104401623830199 0.41541162692010403 0.345911389216781 1.4030522187240424 0.38804693520069156 0.45091782836243499 1.3318312773481009 0.50683969492092729 0.30986440600827325 0.30453668441623449 0.36158639378845681 0.16625202912837167 0.26777231646701694 0.21512781688943505 0.33352921670302549 0.16639703465625721 0.25298894010484219 0.32460927730426192 0.21653190907090891 0.18156832596287131 0.1808711183257401 0.19753575511276722 0.53984071128070354 0.16660620970651541 0.28669431479647833 0.24638973642140627 0.14952987199649215 2.8007927616126835
leaf_count=15 33 22 17 8 30 14 21 12 36 29 18 32 21 14 30 34 21 24 36 30 24 21 25 80 24 39 36 20 417
internal_value=-0.000939463 0.00954889 0.0308193 0.0380925 0.055295 0.0141039 -0.0106539 0.0717701 0.00245704 -0.0309578 -0.0305595 -0.0307796 -0.0115496 -0.0305949 -0.0304329 -0.0305614 -0.0302246 -0.0302877 -0.0302176 -0.0302503 -0.0302099 -0.0302479 -0.0302238 -0.0302079 -0.0302067 -0.0302139 -0.0302148 -0.0302399 -0.0302047
internal_weight=14.3336 8.15648 6.88564 6.16036 3.58763 2.57273 1.46832 2.73488 0.852751 0.725276 1.27084 1.08028 6.17713 0.629359 0.966307 0.570308 5.69574 0.568771 5.12697 0.985067 4.1419 0.395999 0.660457 3.9755 3.79393 0.826535 0.462922 0.315782 2.9674
internal_count=1183 353 235 189 86 103 81 42 44 46 118 67 830 46 100 49 797 65 732 127 605 51 91 584 560 119 66 41 441
cat_boundaries=0 2 3 4 5 6 7
cat_threshold=2166801538 256 1 2 2 2 4
is_linear=0
shrinkage=0.03


Tree=22
num_leaves=37
num_cat=3
split_feature=5 123 116 114 116 119 119 116 118 119 116 121 116 53 119 119 56 4 119 116 119 53 121 53 102 118 116 118 118 114 56 120 123 119 123 123
split_gain=4.02899 3.98842 3.89284 3.45675 3.30611 2.07949 1.72969 3.09531 1.57947 1.538 1.63302 0.0604807 0.000156923 0.000118768 0.000107731 7.58054e-05 3.52564e-05 2.87401e-05 2.59193e-05 1.49627e-05 5.39233e-06 2.84639e-06 3.19182e-06 2.83007e-06 2.40932e-06 1.71855e-06 1.12102e-06 9.48379e-07 8.14099e-07 2.92493e-07 2.90191e-07 3.63829e-07 2.26276e-07 2.0435e-07 1.17028e-07 9.89839e-08
threshold=4.6992187500000009 13.500000000000002 0.046743179494732133 0 -0.033379079190546425 8.6071428571428594 48.32222222222223 -0.043099360742311056 -0.040790711198009803 6.7500000000000009 0.088248602375030794 6.5000000000000009 0.038071811978491202 30.500000000000004 9.1000000000000014 7.2857142857142865 24.000000000000004 1.0000000180025095e-35 55.40097402597403 -0.06682363646534438 125.65555555555558 30.500000000000004 10.500000000000002 30.500000000000004 1 -0.042291374238510711 -0.082956096348329303 0.03954699870764046 0.030736374745884736 2 16.500000000000004 8.5000000000000018 12.500000000000002 69.51666666666668 37.000000000000007 4.5000000000000009
decision_type=2 2 2 1 2 2 2 2 2 2 2 2 2 2 2 2 2 10 2 2 2 2 2 2 1 2 2 2 2 1 2 2 2 2 2 2
left_child=14 3 8 15 6 11 7 -5 -3 -4 -11 -6 25 18 -1 -2 27 19 -14 -16 23 26 -23 29 -25 -7 -17 -10 -27 34 35 -32 -31 -26 -21 -28
right_child=1 2 9 4 5 12 -8 -9 16 10 -12 -13 13 -15 17 21 -18 -19 -20 20 -22 22 -24 24 33 28 30 -29 -30 32 31 -33 -34 -35 -36 -37
leaf_value=-0.030912161473180197 -0.030717784430951169 0.028346082840713435 0.10380440757485594 -0.032391891544954553 0.030630919035487456 -0.030345350394264323 0.075148712971095738 0.065905700316575375 -0.030239417437337324 0.085235888590118741 0.012010338528504744 0.016382951881259315 -0.030736921782980469 -0.03139347873304732 -0.030449475248717529 -0.030294085032130564 -0.030696367390887633 -0.03067865492246441 -0.030285923689720447 -0.03020037438588789 -0.030405593366077312 -0.030399495222688637 -0.030222019071678204 -0.030377120527720926 -0.030269930838524098 -0.030214344810414497 -0.030205494010733743 -0.030329001894773628 -0.030283030228204548 -0.030220446998543961 -0.030207626263140455 -0.030245661325395617 -0.030262288104940575 -0.030224580284696535 -0.030228841261179511 -0.030232207569012778
leaf_weight=0.28043983038514797 0.35251235170289907 0.91588254552334547 0.62581354565918434 0.56492359284311522 0.47955188946798466 0.2132103177718816 0.80140542937442649 0.58881606766954053 0.24302650475874565 0.49843745213001944 0.60900248028337955 0.60820364113897085 0.43554690154269338 0.2543128184042871 0.37814177572727281 0.25314517179504048 0.31390146585181355 0.167458708398044 0.15568126924335957 0.88152332743629813 0.1776424916461109 0.2158252578228711 0.15794314490631223 0.19624739745631814 0.17195946909487236 0.32988302921876311 0.54360048240050729 0.18911914667114615 0.29347121110185981 0.49385575950145777 0.30429376568645217 0.88359963800758123 0.15216757589951158 0.18630956346169114 0.15245060948655009 0.16205206513404846
leaf_count=16 24 23 6 30 16 24 23 10 32 17 23 25 35 10 38 30 23 17 20 134 19 21 23 20 21 48 81 20 34 70 45 117 19 26 21 22
internal_value=-0.000939477 0.00772388 0.0347559 -0.00435546 0.0114232 -0.0096601 0.0412921 0.0177747 0.00195031 0.0662115 0.0449678 0.0226644 -0.0305631 -0.0308514 -0.0303502 -0.0303057 -0.0304544 -0.0302969 -0.0306182 -0.030274 -0.0302465 -0.0302481 -0.0303245 -0.0302339 -0.0302926 -0.0302718 -0.0302348 -0.0302786 -0.0302467 -0.0302145 -0.0302269 -0.0302359 -0.0302303 -0.0302463 -0.0302046 -0.0302116
internal_weight=14.2314 10.9932 3.39518 7.59798 4.72501 2.76986 1.95515 1.15374 1.66193 1.73325 1.10744 1.08776 1.68211 0.845541 3.2382 2.87297 0.746047 2.95776 0.591228 2.7903 2.41216 2.52046 0.373768 2.23451 0.554516 0.836565 2.14669 0.432146 0.623354 1.68 1.89355 1.18789 0.646023 0.358269 1.03397 0.705653
internal_count=1183 782 144 638 275 212 63 40 98 46 40 41 171 65 401 363 75 385 55 368 330 339 44 311 67 106 295 52 82 244 265 162 89 47 155 103
cat_boundaries=0 1 2 3
cat_threshold=4 4 4
is_linear=0
shrinkage=0.03


Tree=23
num_leaves=37
num_cat=3
split_feature=5 123 116 114 116 119 118 119 119 116 121 122 116 53 119 119 56 4 119 116 119 54 121 53 102 118 116 118 118 114 56 120 123 119 123 123
split_gain=3.8825 3.67198 3.43355 3.32978 3.02515 1.99219 1.49406 1.48831 1.32516 1.38282 0.0533142 0.014881 0.000143414 0.000108315 9.84609e-05 6.93153e-05 3.22303e-05 2.63371e-05 2.37036e-05 1.36955e-05 4.93189e-06 2.60121e-06 2.91608e-06 2.58619e-06 2.20176e-06 1.5712e-06 1.02447e-06 8.66544e-07 7.43683e-07 2.67238e-07 2.65177e-07 3.32449e-07 2.0673e-07 1.8669e-07 1.06922e-07 9.04274e-08
threshold=4.6992187500000009 13.500000000000002 0.046743179494732133 0 -0.033379079190546425 8.6071428571428594 -0.040790711198009803 48.32222222222223 6.7500000000000009 0.088248602375030794 6.5000000000000009 11.327620967741938 0.038071811978491202 30.500000000000004 9.1000000000000014 7.2857142857142865 24.000000000000004 1.0000000180025095e-35 55.40097402597403 -0.06682363646534438 125.65555555555558 -0.19622802734374997 10.500000000000002 30.500000000000004 1 -0.042291374238510711 -0.082956096348329303 0.03954699870764046 0.030736374745884736 2 16.500000000000004 8.5000000000000018 12.500000000000002 69.51666666666668 37.000000000000007 4.5000000000000009
decision_type=2 2 2 1 2 2 2 2 2 2 2 2 2 2 2 2 2 10 2 2 2 2 2 2 1 2 2 2 2 1 2 2 2 2 2 2
left_child=14 3 6 15 7 10 -3 11 -4 -10 -6 -5 25 18 -1 -2 27 19 -14 -16 23 22 -17 29 -25 -7 -23 -8 -27 34 35 -32 -31 -26 -21 -28
right_child=1 2 8 4 5 12 16 -9 9 -11 -12 -13 13 -15 17 21 -18 -19 -20 20 -22 26 -24 24 33 28 30 -29 -30 32 31 -33 -34 -35 -36 -37
leaf_value=-0.030884975449909875 -0.030696493485894871 0.026985038815165036 0.095617061873755932 0.020663448221313923 0.028908891726641274 -0.030335094461142891 -0.030232289859883577 0.069419522147274468 0.07770420652992388 0.011553810989701719 0.01567204765332527 0.013867903199760815 -0.03071516464782215 -0.031351122586497839 -0.030436259012855561 -0.030387596197692976 -0.030675678701615 -0.030658983143349323 -0.030277440100696749 -0.030194413475040316 -0.030393592203199166 -0.030285337678008388 -0.030215419990013495 -0.030365897992178734 -0.030261894236920949 -0.030207968226375365 -0.030199380323107251 -0.030319204004255366 -0.030274600004887704 -0.030213887957050989 -0.030201448933985062 -0.030238352387288021 -0.030254480568662648 -0.03021789776673444 -0.03022203172145509 -0.03022529622673235
leaf_weight=0.27238752320408766 0.34232772886753116 0.93294623214751482 0.65848360024392594 0.54504241282120369 0.49266638001427077 0.20697789872065187 0.23589874990284465 0.8408805583603679 0.52983396826311924 0.61399639258161187 0.6165875825099647 0.61983666755259037 0.42296943254768848 0.24712513666599989 0.36712294444441873 0.20952743291854847 0.30482662841677666 0.1626122542656957 0.15112188691273332 0.8556367103010416 0.17245940584689368 0.24573348788544547 0.15330818854272366 0.19051673356443644 0.16692094830796111 0.32020007027313091 0.52763983746990617 0.18358824821189046 0.28487593540921807 0.47936258651316221 0.29536001151427604 0.85768944723531604 0.14770787674933672 0.18084266455844045 0.14797784294933081 0.15729811880737543
leaf_count=16 24 23 6 10 16 24 32 23 17 23 25 30 35 10 38 21 23 17 20 134 19 30 23 20 21 48 81 20 34 70 45 117 19 26 21 22
internal_value=-0.000938344 0.00746643 0.0330542 -0.0042784 0.0110033 -0.00947484 0.00188674 0.0390036 0.0617132 0.0421954 0.0215511 0.0170475 -0.0305464 -0.030826 -0.0303399 -0.0302967 -0.0304409 -0.0302882 -0.0305999 -0.0302659 -0.0302392 -0.0302407 -0.0303148 -0.0302269 -0.0302839 -0.0302637 -0.0302278 -0.0302703 -0.0302393 -0.0302081 -0.0302201 -0.0302289 -0.0302234 -0.030239 -0.0301985 -0.0302053
internal_weight=14.1403 10.9967 3.45957 7.53717 4.74828 2.74252 1.65726 2.00576 1.80231 1.14383 1.10925 1.16488 1.63327 0.821216 3.14355 2.78888 0.724314 2.87116 0.574091 2.70855 2.34142 2.44656 0.362836 2.16897 0.53828 0.812054 2.08372 0.419487 0.605076 1.63069 1.83799 1.15305 0.62707 0.347764 1.00361 0.684938
internal_count=1183 782 144 638 275 212 98 63 46 40 41 40 171 65 401 363 75 385 55 368 330 339 44 311 67 106 295 52 82 244 265 162 89 47 155 103
cat_boundaries=0 1 2 3
cat_threshold=4 4 4
is_linear=0
shrinkage=0.03


Tree=24
num_leaves=40
num_cat=10
split_feature=119 70 120 119 119 114 119 116 105 114 118 119 123 56 119 116 121 114 116 123 114 119 122 120 121 116 115 5 70 118 119 24 118 114 102 6 102 53 102
split_gain=3.74379 3.77225 2.13979 2.68804 2.979 2.48884 2.12503 4.86464 1.96633 3.00976 2.15359 0.000614202 0.000432769 0.000333602 0.00027568 0.000110248 7.79085e-05 5.96382e-05 3.20608e-05 2.31639e-05 2.67463e-05 1.8783e-05 1.34283e-05 5.18487e-06 4.65775e-06 2.69783e-06 1.3268e-06 1.46925e-06 2.24961e-06 1.98803e-06 5.10766e-07 2.55265e-07 2.22184e-07 2.10483e-07 2.06365e-07 1.4954e-07 2.20444e-08 5.07113e-09 8.39412e-10
threshold=59.690476190476197 24.500000000000004 46.500000000000007 6.7500000000000009 29.676282051282055 0 38.978260869565226 -0.086140044807533137 1 2 -0.062553882092842711 4.2500000000000009 13.500000000000002 24.000000000000004 5.5833333333333348 -0.070036441922043266 56.500000000000007 3 0.038071811978491202 22.500000000000004 4 10.16666666666667 13.033928571428573 14.500000000000002 15.500000000000002 -0.072651133593364545 5 4.6992187500000009 17.500000000000004 0.021810243710927889 39.440476190476197 125.50000000000001 0.086196885844541188 6 7 1.0000000180025095e-35 8 30.500000000000004 9
decision_type=2 2 2 2 2 1 2 2 9 1 2 2 2 2 2 2 2 1 2 2 1 2 2 2 2 2 1 2 2 2 2 2 2 1 1 2 1 2 1
left_child=1 2 3 -1 12 16 -7 -8 -3 -10 -11 -12 21 -14 -4 -2 30 -16 23 26 -21 22 -5 -13 -19 -26 31 35 -29 -30 -6 32 37 -23 -27 36 -28 38 -17
right_child=15 8 14 4 5 6 7 -9 9 10 11 18 13 -15 17 19 -18 24 -20 20 -22 33 -24 -25 25 34 27 28 29 -31 -32 -33 -34 -35 -36 -37 -38 -39 -40
leaf_value=0.049329753019469458 -0.030830995430453305 0.067418535317172165 -0.03119391012835257 -0.030612713779645855 -0.030277613499975764 0.069605540766020879 0.085601795988451898 -0.031732441381192023 0.077927492109180763 0.065052433191172321 -0.032493480053263878 -0.030469003945289522 -0.030551537561059924 -0.031839403426591556 -0.030794150359273697 -0.03018919628530424 -0.030974884057473798 -0.030393482122728549 -0.030743557312828997 -0.030680133342843419 -0.030238086242437564 -0.03020243970397183 -0.030267238370008068 -0.030241919034977745 -0.030336518588919975 -0.030235742790500335 -0.030190338042202402 -0.030205217315978215 -0.030373792259890876 -0.03024282634678194 -0.030219418861274539 -0.030240704607653129 -0.030228460348871309 -0.030230483820560594 -0.030205208701467923 -0.030230245537130541 -0.030206660743963432 -0.030193766360264787 -0.030186511612184223
leaf_weight=1.0452272491529564 0.35770798940211568 1.1412759525701404 0.44428638368844975 0.22228659782558702 0.20165004767477512 0.83806888898834664 0.48841877467930328 0.9114862801507112 0.5063610184006393 0.27174522588029482 0.18268462922423989 0.17377096926793456 0.3671852834522723 0.35704134218394756 0.22515598172321916 0.1429495494812727 0.16356247384101152 0.21163076534867276 0.38618602603673935 0.24333360046148289 0.24949555052444339 0.59343352587893605 0.18597421888262033 0.18881577998399734 0.20794369652867295 0.31088768877089024 0.1313341273926214 0.23699968960136175 0.25518139079213142 0.17644396563991904 0.41526589030399919 0.13369930116459727 0.15434177732095122 0.40542220463976264 0.55455327546223998 0.27142026508226991 0.17197440797463059 0.13330743787810206 0.39294409798458219
leaf_count=33 26 35 16 18 25 25 5 65 6 7 4 16 38 11 16 23 9 24 26 17 34 91 24 26 22 43 21 36 26 24 61 18 22 57 84 38 26 21 64
internal_value=-0.000933378 0.007222 -0.00316859 0.00546583 -0.003437 0.0157363 0.0318235 0.0092048 0.0369248 0.0165677 -0.0092552 -0.0309339 -0.0305906 -0.0311865 -0.030537 -0.0303362 -0.0303928 -0.0303438 -0.0305533 -0.0302704 -0.0304563 -0.0302839 -0.0304553 -0.0303508 -0.0302649 -0.0302395 -0.0302288 -0.0302492 -0.0302795 -0.0303203 -0.0302384 -0.0302023 -0.030196 -0.0302138 -0.0302162 -0.0302141 -0.0301996 -0.0301885 -0.0301872
internal_weight=14.0515 11.0003 8.14948 6.19502 5.1498 3.01845 2.23797 1.39991 2.85084 1.70956 1.2032 0.931457 2.13134 0.724227 1.95446 3.05113 0.780478 1.51017 0.748773 2.69343 0.492829 1.40712 0.408261 0.362587 1.28502 1.07338 2.2006 1.24335 0.668625 0.431625 0.616916 0.957242 0.823543 0.998856 0.865441 0.574729 0.303309 0.669201 0.535894
internal_count=1183 787 667 462 429 190 95 70 120 85 79 72 239 49 205 396 95 189 68 370 51 190 42 42 173 149 319 171 86 50 86 148 130 148 127 85 47 108 87
cat_boundaries=0 1 2 3 4 5 6 7 8 9 10
cat_threshold=4 2 2 2 1 2 4 2 1 1
is_linear=0
shrinkage=0.03


Tree=25
num_leaves=37
num_cat=4
split_feature=5 123 114 116 116 119 118 119 119 116 122 122 116 116 119 102 119 56 4 114 114 122 53 121 118 116 118 122 118 120 116 6 56 120 119 123
split_gain=3.64215 3.2714 3.0915 2.88989 2.60085 1.86128 1.3736 1.24374 1.07383 1.12454 0.0824352 0.0151824 0.000141631 0.000136442 0.000115693 7.4877e-05 6.13879e-05 2.67136e-05 2.19284e-05 1.15677e-05 4.08976e-06 4.10639e-06 2.27189e-06 2.3301e-06 1.30421e-06 8.54621e-07 7.87144e-07 6.35387e-07 6.18949e-07 3.855e-07 2.3086e-07 2.22896e-07 2.2153e-07 2.77599e-07 2.20497e-07 7.55219e-08
threshold=4.6992187500000009 13.500000000000002 0 0.046743179494732133 -0.033379079190546425 8.6071428571428594 -0.040790711198009803 48.32222222222223 6.7500000000000009 0.088248602375030794 12.16488603988604 11.327620967741938 0.038071811978491202 0.039459020342195401 8.6071428571428594 1 7.2857142857142865 24.000000000000004 1.0000000180025095e-35 2 3 46.140713276836166 30.500000000000004 10.500000000000002 -0.042291374238510711 -0.082956096348329303 0.03954699870764046 29.88942307692308 0.030736374745884736 3.5000000000000004 -0.054955200871634247 1.0000000180025095e-35 16.500000000000004 8.5000000000000018 19.611111111111118 4.5000000000000009
decision_type=2 2 1 2 2 2 2 2 2 2 2 2 2 2 2 1 2 2 10 1 1 2 2 2 2 2 2 2 2 2 2 2 2 2 2 2
left_child=14 2 16 6 7 10 -3 11 -5 -10 -6 -4 24 -14 -1 -15 -2 26 19 -16 21 27 25 -24 -7 -18 -8 31 -26 -22 -31 -21 35 -34 -32 -27
right_child=1 3 4 8 5 12 17 -9 9 -11 -12 -13 13 15 18 -17 22 -19 -20 20 29 -23 23 -25 28 32 -28 -29 -30 30 34 -33 33 -35 -36 -37
leaf_value=-0.030946996075053627 -0.030664005831178058 0.025197173527687026 0.01889555922935986 0.085661440887443346 0.029136835429273849 -0.030316361990419417 -0.030221028346276189 0.062090277415495117 0.069258387460066226 0.01073594012169576 0.012850586864848442 0.012123881200964946 -0.031607038776957919 -0.030954246037798228 -0.030458112908289599 -0.030301370146683663 -0.030268581136026991 -0.030636040318385391 -0.030620470928011265 -0.03018823190702901 -0.030238599131085477 -0.030365655844411192 -0.030364907342435604 -0.030207848373644292 -0.030197574310391787 -0.030187684251641041 -0.030305804309193028 -0.030283542854273 -0.030259900601829877 -0.030229164089071878 -0.030225895115284122 -0.03023609045703245 -0.03018963728889516 -0.030224379736604988 -0.030186109891414212 -0.030212084659286043
leaf_weight=0.24930327711626832 0.33064438868314061 0.94775219727307558 0.56046150065958522 0.70033640228211869 0.49040111387148522 0.19689916772767901 0.22420068038627528 0.8923389809206127 0.56774918641895034 0.61628212360665202 0.65106580639258027 0.63627266278490424 0.15877490304410458 0.31198091385886073 0.22219068557024002 0.32053136406466365 0.23152769217267599 0.29107338143512607 0.15331768570467819 0.20301295490935423 0.22452223720029119 0.33793716318905354 0.19865066837519396 0.14861531043425202 0.30461304960772373 0.4970711474306887 0.17591287381947041 0.14393026055768132 0.27096167346462607 0.16497776564210753 0.14364786352962122 0.15404088562354445 0.27825805824249961 0.80809852248057723 0.98543018382042646 0.14819863066077232
leaf_count=13 24 23 10 6 18 24 32 23 17 23 23 30 4 18 24 43 30 23 17 33 31 37 21 23 48 81 20 19 34 23 21 21 45 117 162 22
internal_value=-0.000934524 0.00706476 -0.00421847 0.0308762 0.0101391 -0.00927829 0.00174295 0.0352835 0.0562149 0.0387978 0.0198475 0.0152952 -0.0305387 -0.0308208 -0.0303283 -0.0306234 -0.0302817 -0.0304174 -0.0302719 -0.0302512 -0.0302317 -0.0302848 -0.030227 -0.0302977 -0.0302497 -0.0302144 -0.0302583 -0.0302303 -0.0302269 -0.0302023 -0.030196 -0.0302089 -0.0302072 -0.0302155 -0.0301912 -0.0301933
internal_weight=13.941 10.9587 7.43537 3.52331 4.7943 2.70523 1.63894 2.08907 1.88437 1.18403 1.14147 1.19673 1.56376 0.791287 2.98231 0.632512 2.64106 0.691187 2.73301 2.57969 2.3575 0.838921 2.31042 0.347266 0.772474 1.96315 0.400114 0.500984 0.575575 1.51858 1.29406 0.357054 1.73163 1.08636 1.12908 0.64527
internal_count=1183 782 638 144 275 212 98 63 46 40 41 40 171 65 401 61 363 75 388 371 347 110 339 44 106 295 52 73 82 237 206 54 265 162 183 103
cat_boundaries=0 1 2 3 4
cat_threshold=4 4 2 1
is_linear=0
shrinkage=0.03


Tree=26
num_leaves=37
num_cat=8
split_feature=119 70 120 119 119 114 119 116 105 102 123 56 119 120 116 121 114 123 114 119 122 121 120 116 114 5 119 121 119 6 114 78 84 102 116 5
split_gain=3.53456 3.37875 2.01181 2.30144 2.81122 2.23147 1.81899 4.20037 1.57485 2.68934 0.000436348 0.000338665 0.000254916 0.000124503 0.00012137 6.9759e-05 4.63474e-05 2.35924e-05 2.62128e-05 1.93026e-05 1.40644e-05 4.92208e-06 5.58679e-06 2.90971e-06 1.25556e-06 1.24903e-06 1.18895e-06 1.08878e-06 4.3499e-07 2.18155e-07 1.91101e-07 1.63797e-07 1.81474e-07 1.25757e-07 3.53138e-08 1.13028e-08
threshold=59.690476190476197 24.500000000000004 46.500000000000007 6.7500000000000009 29.676282051282055 0 38.978260869565226 -0.086140044807533137 1 2 13.500000000000002 24.000000000000004 5.4500000000000011 75.500000000000014 -0.070036441922043266 56.500000000000007 3 22.500000000000004 4 10.16666666666667 13.033928571428573 34.500000000000007 81.500000000000014 -0.05555237257372217 5 4.6992187500000009 84.312500000000014 2.5000000000000004 39.440476190476197 1.0000000180025095e-35 6 -0.00086307525634765614 0.0014495849609375002 7 0.093398071155770937 4.6992187500000009
decision_type=2 2 2 2 2 1 2 2 9 1 2 2 2 2 2 2 1 2 1 2 2 2 2 2 1 2 2 2 2 2 1 2 2 1 2 2
left_child=1 2 3 -1 10 15 -7 -8 -3 -10 19 -12 -4 -11 -2 28 -14 24 -19 20 -5 22 -18 -23 27 29 -27 -16 -6 -26 -21 32 -29 -25 35 -33
right_child=14 8 12 4 5 6 7 -9 9 13 11 -13 16 -15 17 -17 21 18 -20 30 -22 23 -24 33 25 26 -28 31 -30 -31 -32 34 -34 -35 -36 -37
leaf_value=0.044518908469667502 -0.030856269783878829 0.060848496284926362 -0.031216507354117084 -0.030613406832718737 -0.030261942327204451 0.063300592174901291 0.075275456327545578 -0.031726041294648004 0.046321192194415162 -0.030479720971972338 -0.030543124099491614 -0.031854893503787493 -0.03074850011129494 -0.031302931439002972 -0.030265646143887957 -0.030935769505276375 -0.030448785380156745 -0.030674352685347378 -0.03022912491659991 -0.030190573213948073 -0.030253153890357449 -0.030337901183155335 -0.030231486362003391 -0.030217398771753841 -0.030187720630899452 -0.030235889607062815 -0.030344193749523494 -0.03023336362806911 -0.030206687340020324 -0.030235035861856052 -0.030218060091265125 -0.030176770530164505 -0.030184281422042023 -0.030190348152877099 -0.03019688210896633 -0.030184107741184248
leaf_weight=1.0957628199830631 0.35006058448925648 1.2043049042113125 0.37498389277607191 0.21732663642615102 0.19067956320941448 0.88297297665849406 0.5281571624800564 0.88084222748875585 1.0355697474442422 0.3702935092151155 0.35574571648612607 0.35279594222083688 0.21480360347777605 0.29875054396688938 0.19540509302169096 0.15788216050714254 0.24424309935420729 0.23741902550682414 0.23863267200067639 0.55907477252185345 0.17693942785263062 0.1756906323134898 0.18879686621949077 0.247742157895118 0.19518943876028205 0.189515161793679 0.17589462362229824 0.1396596380509445 0.39150062436237931 0.1592583698220551 0.38400037493556738 0.3840326122008253 0.13175697019323707 0.41173671511933219 0.13802993576973677 0.37199038546532393
leaf_count=33 26 35 13 18 25 25 5 65 31 39 38 11 16 15 26 9 26 17 34 91 24 19 27 37 32 27 20 20 61 22 57 66 22 67 22 62
internal_value=-0.000927895 0.00688468 -0.00314856 0.0050883 -0.00342042 0.0149154 0.0295398 0.00838299 0.034587 0.0160333 -0.0305944 -0.0311963 -0.0305177 -0.0308473 -0.0303324 -0.0303765 -0.030341 -0.0302607 -0.0304512 -0.0302755 -0.0304517 -0.030272 -0.030354 -0.0302294 -0.0302171 -0.0302491 -0.030288 -0.0302001 -0.0302248 -0.030209 -0.0302018 -0.0301891 -0.0302095 -0.0302005 -0.0301829 -0.0301804
internal_weight=13.8474 10.9406 8.03168 6.17368 5.07792 3.03203 2.29197 1.409 2.90892 1.70461 2.04588 0.708542 1.858 0.669044 2.90684 0.740062 1.48301 2.55678 0.476052 1.33734 0.394266 1.26821 0.43304 0.83517 2.08073 0.719858 0.36541 1.36087 0.58218 0.354448 0.943075 1.16547 0.271417 0.659479 0.894053 0.756023
internal_count=1183 787 667 462 429 190 95 70 120 85 239 49 205 54 396 95 192 370 51 190 42 176 53 123 319 101 47 218 86 54 148 192 42 104 150 128
cat_boundaries=0 1 2 3 4 5 6 7 8
cat_threshold=4 2 2 2 1 4 4 2
is_linear=0
shrinkage=0.03


Tree=27
num_leaves=37
num_cat=4
split_feature=5 123 114 116 116 119 123 119 119 119 116 119 116 102 54 119 120 119 116 123 4 114 114 122 53 121 116 122 53 121 116 56 120 6 123 123
split_gain=3.42312 2.91606 2.88874 2.4613 2.25688 1.74072 3.25255 1.29704 3.26078 1.05756 2.71201 0.875708 1.12442 0.000708069 0.000127895 0.000110821 9.5704e-05 5.49367e-05 3.15864e-05 2.23506e-05 1.81463e-05 9.54803e-06 3.38329e-06 3.48823e-06 2.24774e-06 1.80123e-06 7.12821e-07 5.25793e-07 4.06629e-07 4.01055e-07 1.99835e-07 1.85085e-07 2.31806e-07 1.81539e-07 1.20921e-07 6.30836e-08
threshold=4.6992187500000009 13.500000000000002 0 0.046743179494732133 -0.033379079190546425 8.6071428571428594 -6.4999999999999991 31.464285714285719 38.400000000000006 48.32222222222223 -0.043099360742311056 6.7500000000000009 0.087801273268973482 1 -0.19622802734374997 9.1000000000000014 8.5000000000000018 7.2857142857142865 0.12047408850872485 -45.999999999999993 1.0000000180025095e-35 2 3 46.140713276836166 30.500000000000004 5.5000000000000009 -0.082956096348329303 29.88942307692308 30.500000000000004 10.500000000000002 -0.054762114232776403 16.500000000000004 8.5000000000000018 1.0000000180025095e-35 21.500000000000004 4.5000000000000009
decision_type=2 2 1 2 2 2 2 2 2 2 2 2 2 1 2 2 2 2 2 2 10 1 1 2 2 2 2 2 2 2 2 2 2 2 2 2
left_child=15 2 17 7 9 6 -6 13 -9 10 -4 -5 -13 -3 -7 -1 -10 -2 19 -16 21 -17 23 27 26 -26 -19 33 30 -30 -24 35 -33 -23 -32 -28
right_child=1 3 4 11 5 14 -8 8 16 -11 -12 12 -14 -15 18 20 -18 24 -20 -21 -22 22 28 -25 25 -27 31 -29 29 -31 34 32 -34 -35 -36 -37
leaf_value=-0.030905118952811578 -0.030634838118062595 -0.032334070162575897 -0.03282845217324671 0.077345388986715197 0.068239887938017746 -0.031031477568733319 -0.031748917838575044 0.078930215580295157 -0.031168647273748264 0.056236525225951267 0.056576585096673244 0.066314970244096313 0.0086086834793022409 -0.030349968564622791 -0.030587678053293186 -0.030431494976551465 -0.030330149553040926 -0.03025281064973645 -0.030777856948192309 -0.030236629358941263 -0.030584153605132888 -0.030178531531271018 -0.030213278840221593 -0.030345826502555337 -0.030367205520146705 -0.030226457832102219 -0.030176678388479365 -0.030267478177454787 -0.030255469506141424 -0.030189829734942511 -0.030171460736036524 -0.030178523442411856 -0.030211232267889517 -0.03022292161915632 -0.030196883354223172 -0.030199654002193238
leaf_weight=0.26215605810284559 0.32152773439884219 0.31516965106129646 0.58460281509906065 0.73784854542464007 0.58669325755909085 0.33829142060130823 0.58449222985655092 0.48205960262566805 0.26667543966323137 0.93576615164056409 0.63927499949932109 0.57727343263104536 0.64171951729804277 0.33282717177644394 0.20494644576683618 0.20994286239147186 0.22661503870040178 0.21813321160152499 0.14771514525637019 0.80190160823985934 0.14453873736783851 0.19241090817376949 0.16731880931183796 0.32049055909737945 0.14246487477794278 0.19228051323443651 0.46826190734282214 0.13617985276505351 0.1590711474418639 0.17698205215856433 0.69432659680023801 0.26214172132313229 0.76135953795164824 0.14570632623508573 0.22229503048583865 0.139623096678406
leaf_count=16 24 10 30 6 16 23 25 6 16 23 10 14 26 38 21 24 28 30 10 117 17 33 25 37 15 29 81 19 21 29 123 45 117 21 36 22
internal_value=-0.000925815 0.00670231 -0.00413772 0.0288944 0.00943674 -0.0090392 0.0183394 0.0015843 0.0234417 0.0322278 0.013871 0.0515501 0.0359364 -0.031315 -0.0305185 -0.0303176 -0.0307834 -0.0302687 -0.0303682 -0.0303081 -0.0302576 -0.0302381 -0.0302198 -0.0302694 -0.0302148 -0.0302864 -0.0302019 -0.0302177 -0.0301921 -0.0302209 -0.0301831 -0.0301951 -0.0302029 -0.0301977 -0.0301776 -0.030182
internal_weight=13.7411 10.9097 7.32948 3.58019 4.82368 2.66404 1.17119 1.62335 0.97535 2.15964 1.22388 1.95684 1.21899 0.647997 1.49285 2.83142 0.49329 2.50579 1.15456 1.00685 2.56926 2.42472 2.21478 0.794788 2.18426 0.334745 1.84952 0.474297 1.41999 0.336053 1.08394 1.63139 1.0235 0.338117 0.916622 0.607885
internal_count=1183 782 638 144 275 212 41 98 50 63 40 46 40 48 171 401 44 363 148 138 385 368 344 110 339 44 295 73 234 50 184 265 162 54 159 103
cat_boundaries=0 1 2 3 4
cat_threshold=4 2 2 1
is_linear=0
shrinkage=0.03


Tree=28
num_leaves=36
num_cat=7
split_feature=119 70 120 120 114 119 116 119 116 105 114 118 119 122 119 116 121 114 116 123 114 119 120 121 120 116 114 71 122 122 119 52 116 116 102
split_gain=3.33283 3.00437 1.9009 2.04652 2.25559 1.73822 2.0219 1.60058 3.7157 1.3114 2.46147 1.94648 0.000644453 0.000327964 0.000264076 0.000132562 9.17311e-05 3.84248e-05 3.09453e-05 2.24786e-05 2.47027e-05 4.93468e-06 4.166e-06 4.15941e-06 4.44794e-06 2.69933e-06 1.31619e-06 1.05567e-06 5.34022e-07 7.75367e-07 3.02568e-07 2.04034e-07 1.69428e-07 1.21929e-07 1.01777e-07
threshold=59.690476190476197 24.500000000000004 46.500000000000007 37.500000000000007 0 29.676282051282055 0.12828558880092303 38.978260869565226 -0.086140044807533137 1 2 -0.062553882092842711 4.2500000000000009 34.975910693302005 5.4500000000000011 -0.070036441922043266 50.500000000000007 3 0.038071811978491202 22.500000000000004 4 8.1666666666666696 14.500000000000002 34.500000000000007 81.500000000000014 -0.05555237257372217 5 0.0016140937805175783 10.776259866423802 8.4982837528604147 29.225000000000005 28.000000000000004 0.10871405275658517 -0.012585844538567401 6
decision_type=2 2 2 2 1 2 2 2 2 9 1 2 2 2 2 2 2 1 2 2 1 2 2 2 2 2 1 2 2 2 2 2 2 2 1
left_child=1 2 3 4 16 6 13 -7 -9 -3 -11 -12 -13 -6 -4 -2 21 -16 22 26 -21 -1 -14 24 -19 -25 -17 28 29 31 -23 -28 33 -30 -27
right_child=15 9 14 -5 5 7 -8 8 -10 10 11 12 18 -15 17 19 -18 23 -20 20 -22 30 -24 25 -26 34 27 -29 32 -31 -32 -33 -34 -35 -36
leaf_value=-0.030358804122985437 -0.030881177586253489 0.055553323120448611 -0.031228066473553952 0.056200890976967864 -0.03053003167687391 0.058933165984776457 0.054720377511722762 0.067872935200001219 -0.031774790339517071 0.068267616773169171 0.059795358215037855 -0.032541107470218732 -0.030439319188384106 -0.031592229659995592 -0.030703478833125034 -0.03030194001261911 -0.030796786569440644 -0.030422572611136633 -0.030726286167589583 -0.030659200005244771 -0.030217687227219653 -0.030180161705327495 -0.03022798256465839 -0.030324801321615812 -0.030223365424868514 -0.030204605790212908 -0.030222292952280943 -0.030267689490677263 -0.030192986883853294 -0.030275388037945064 -0.030210874948629257 -0.030174599102738731 -0.030216701161458241 -0.030170889390295306 -0.030179540082329637
